{"classes": ["danger", "i", "love", "water", "you"], "trees": [{"children_left": [1, 2, -1, 4, -1, -1, -1], "children_right": [6, 3, -1, 5, -1, -1, -1], "feature": [96, 72, -2, 110, -2, -2, -2], "threshold": [0.39463797211647034, 0.3279738053679466, -2.0, 0.2804517447948456, -2.0, -2.0, -2.0], "value": [[[0.5, 0.16666666666666666, 0.16666666666666666, 0.0, 0.16666666666666666]], [[0.0, 0.3333333333333333, 0.3333333333333333, 0.0, 0.3333333333333333]], [[0.0, 1.0, 0.0, 0.0, 0.0]], [[0.0, 0.0, 0.5, 0.0, 0.5]], [[0.0, 0.0, 1.0, 0.0, 0.0]], [[0.0, 0.0, 0.0, 0.0, 1.0]], [[1.0, 0.0, 0.0, 0.0, 0.0]]]}, {"children_left": [1, -1, 3, -1, 5, -1, -1], "children_right": [2, -1, 4, -1, 6, -1, -1], "feature": [208, -2, 64, -2, 48, -2, -2], "threshold": [0.1231996901333332, -2.0, 0.3714907318353653, -2.0, 0.46784132719039917, -2.0, -2.0], "value": [[[0.16666666666666666, 0.0, 0.5, 0.16666666666666666, 0.16666666666666666]], [[0.0, 0.0, 1.0, 0.0, 0.0]], [[0.3333333333333333, 0.0, 0.0, 0.3333333333333333, 0.3333333333333333]], [[0.0, 0.0, 0.0, 1.0, 0.0]], [[0.5, 0.0, 0.0, 0.0, 0.5]], [[0.0, 0.0, 0.0, 0.0, 1.0]], [[1.0, 0.0, 0.0, 0.0, 0.0]]]}, {"children_left": [1, -1, 3, -1, 5, -1, -1], "children_right": [2, -1, 4, -1, 6, -1, -1], "feature": [88, -2, 57, -2, 46, -2, -2], "threshold": [0.2082945629954338, -2.0, 0.12316254898905754, -2.0, 0.4775398522615433, -2.0, -2.0], "value": [[[0.5, 0.16666666666666666, 0.0, 0.16666666666666666, 0.16666666666666666]], [[1.0, 0.0, 0.0, 0.0, 0.0]], [[0.0, 0.3333333333333333, 0.0, 0.3333333333333333, 0.3333333333333333]], [[0.0, 1.0, 0.0, 0.0, 0.0]], [[0.0, 0.0, 0.0, 0.5, 0.5]], [[0.0, 0.0, 0.0, 0.0, 1.0]], [[0.0, 0.0, 0.0, 1.0, 0.0]]]}, {"children_left": [1, -1, 3, -1, 5, -1, -1], "children_right": [2, -1, 4, -1, 6, -1, -1], "feature": [50, -2, 82, -2, 31, -2, -2], "threshold": [0.2709745615720749, -2.0, 0.4621565416455269, -2.0, 0.532709389925003, -2.0, -2.0], "value": [[[0.3333333333333333, 0.3333333333333333, 0.0, 0.16666666666666666, 0.16666666666666666]], [[0.0, 1.0, 0.0, 0.0, 0.0]], [[0.5, 0.0, 0.0, 0.25, 0.25]], [[1.0, 0.0, 0.0, 0.0, 0.0]], [[0.0, 0.0, 0.0, 0.5, 0.5]], [[0.0, 0.0, 0.0, 0.0, 1.0]], [[0.0, 0.0, 0.0, 1.0, 0.0]]]}, {"children_left": [1, 2, -1, 4, -1, -1, -1], "children_right": [6, 3, -1, 5, -1, -1, -1], "feature": [161, 16, -2, 23, -2, -2, -2], "threshold": [0.5152627974748611, 0.33152833580970764, -2.0, 0.5149606764316559, -2.0, -2.0, -2.0], "value": [[[0.16666666666666666, 0.0, 0.5, 0.16666666666666666, 0.16666666666666666]], [[0.3333333333333333, 0.0, 0.0, 0.3333333333333333, 0.3333333333333333]], [[0.0, 0.0, 0.0, 0.0, 1.0]], [[0.5, 0.0, 0.0, 0.5, 0.0]], [[1.0, 0.0, 0.0, 0.0, 0.0]], [[0.0, 0.0, 0.0, 1.0, 0.0]], [[0.0, 0.0, 1.0, 0.0, 0.0]]]}, {"children_left": [1, 2, 3, -1, -1, -1, -1], "children_right": [6, 5, 4, -1, -1, -1, -1], "feature": [175, 101, 133, -2, -2, -2, -2], "threshold": [0.34828223288059235, 0.44659338891506195, 0.3343566954135895, -2.0, -2.0, -2.0, -2.0], "value": [[[0.3333333333333333, 0.0, 0.16666666666666666, 0.16666666666666666, 0.3333333333333333]], [[0.0, 0.0, 0.25, 0.25, 0.5]], [[0.0, 0.0, 0.5, 0.5, 0.0]], [[0.0, 0.0, 1.0, 0.0, 0.0]], [[0.0, 0.0, 0.0, 1.0, 0.0]], [[0.0, 0.0, 0.0, 0.0, 1.0]], [[1.0, 0.0, 0.0, 0.0, 0.0]]]}, {"children_left": [1, -1, 3, 4, -1, -1, -1], "children_right": [2, -1, 6, 5, -1, -1, -1], "feature": [82, -2, 123, 7, -2, -2, -2], "threshold": [0.2252935767173767, -2.0, 0.44770383834838867, 0.8457026779651642, -2.0, -2.0, -2.0], "value": [[[0.3333333333333333, 0.3333333333333333, 0.16666666666666666, 0.16666666666666666, 0.0]], [[1.0, 0.0, 0.0, 0.0, 0.0]], [[0.0, 0.5, 0.25, 0.25, 0.0]], [[0.0, 0.0, 0.5, 0.5, 0.0]], [[0.0, 0.0, 0.0, 1.0, 0.0]], [[0.0, 0.0, 1.0, 0.0, 0.0]], [[0.0, 1.0, 0.0, 0.0, 0.0]]]}, {"children_left": [1, -1, 3, -1, 5, -1, -1], "children_right": [2, -1, 4, -1, 6, -1, -1], "feature": [0, -2, 148, -2, 122, -2, -2], "threshold": [0.1789231076836586, -2.0, 0.1457325704395771, -2.0, 0.21138806641101837, -2.0, -2.0], "value": [[[0.5, 0.0, 0.16666666666666666, 0.16666666666666666, 0.16666666666666666]], [[1.0, 0.0, 0.0, 0.0, 0.0]], [[0.0, 0.0, 0.3333333333333333, 0.3333333333333333, 0.3333333333333333]], [[0.0, 0.0, 0.0, 0.0, 1.0]], [[0.0, 0.0, 0.5, 0.5, 0.0]], [[0.0, 0.0, 0.0, 1.0, 0.0]], [[0.0, 0.0, 1.0, 0.0, 0.0]]]}, {"children_left": [1, -1, 3, -1, -1], "children_right": [2, -1, 4, -1, -1], "feature": [182, -2, 100, -2, -2], "threshold": [0.18526964634656906, -2.0, 0.3560684323310852, -2.0, -2.0], "value": [[[0.3333333333333333, 0.5, 0.0, 0.16666666666666666, 0.0]], [[0.0, 1.0, 0.0, 0.0, 0.0]], [[0.6666666666666666, 0.0, 0.0, 0.3333333333333333, 0.0]], [[0.0, 0.0, 0.0, 1.0, 0.0]], [[1.0, 0.0, 0.0, 0.0, 0.0]]]}, {"children_left": [1, 2, 3, -1, -1, -1, -1], "children_right": [6, 5, 4, -1, -1, -1, -1], "feature": [171, 39, 41, -2, -2, -2, -2], "threshold": [0.37972792983055115, 0.18926619738340378, 0.3599695712327957, -2.0, -2.0, -2.0, -2.0], "value": [[[0.3333333333333333, 0.16666666666666666, 0.0, 0.16666666666666666, 0.3333333333333333]], [[0.0, 0.25, 0.0, 0.25, 0.5]], [[0.0, 0.5, 0.0, 0.5, 0.0]], [[0.0, 1.0, 0.0, 0.0, 0.0]], [[0.0, 0.0, 0.0, 1.0, 0.0]], [[0.0, 0.0, 0.0, 0.0, 1.0]], [[1.0, 0.0, 0.0, 0.0, 0.0]]]}, {"children_left": [1, 2, 3, -1, -1, -1, -1], "children_right": [6, 5, 4, -1, -1, -1, -1], "feature": [36, 91, 185, -2, -2, -2, -2], "threshold": [0.39050528407096863, 0.46860626339912415, 0.11980297788977623, -2.0, -2.0, -2.0, -2.0], "value": [[[0.3333333333333333, 0.16666666666666666, 0.3333333333333333, 0.0, 0.16666666666666666]], [[0.0, 0.25, 0.5, 0.0, 0.25]], [[0.0, 0.5, 0.0, 0.0, 0.5]], [[0.0, 1.0, 0.0, 0.0, 0.0]], [[0.0, 0.0, 0.0, 0.0, 1.0]], [[0.0, 0.0, 1.0, 0.0, 0.0]], [[1.0, 0.0, 0.0, 0.0, 0.0]]]}, {"children_left": [1, -1, 3, -1, -1], "children_right": [2, -1, 4, -1, -1], "feature": [107, -2, 120, -2, -2], "threshold": [0.2394954264163971, -2.0, 0.4136321097612381, -2.0, -2.0], "value": [[[0.3333333333333333, 0.3333333333333333, 0.0, 0.0, 0.3333333333333333]], [[0.0, 1.0, 0.0, 0.0, 0.0]], [[0.5, 0.0, 0.0, 0.0, 0.5]], [[1.0, 0.0, 0.0, 0.0, 0.0]], [[0.0, 0.0, 0.0, 0.0, 1.0]]]}, {"children_left": [1, -1, 3, -1, 5, -1, 7, -1, -1], "children_right": [2, -1, 4, -1, 6, -1, 8, -1, -1], "feature": [101, -2, 163, -2, 128, -2, 145, -2, -2], "threshold": [0.20091689378023148, -2.0, 0.3252424895763397, -2.0, 0.5985172986984253, -2.0, 0.2548086941242218, -2.0, -2.0], "value": [[[0.3333333333333333, 0.16666666666666666, 0.16666666666666666, 0.16666666666666666, 0.16666666666666666]], [[1.0, 0.0, 0.0, 0.0, 0.0]], [[0.0, 0.25, 0.25, 0.25, 0.25]], [[0.0, 1.0, 0.0, 0.0, 0.0]], [[0.0, 0.0, 0.3333333333333333, 0.3333333333333333, 0.3333333333333333]], [[0.0, 0.0, 0.0, 1.0, 0.0]], [[0.0, 0.0, 0.5, 0.0, 0.5]], [[0.0, 0.0, 0.0, 0.0, 1.0]], [[0.0, 0.0, 1.0, 0.0, 0.0]]]}, {"children_left": [1, 2, 3, -1, -1, -1, -1], "children_right": [6, 5, 4, -1, -1, -1, -1], "feature": [200, 12, 137, -2, -2, -2, -2], "threshold": [0.43121016025543213, 0.6542198657989502, 0.527256041765213, -2.0, -2.0, -2.0, -2.0], "value": [[[0.3333333333333333, 0.16666666666666666, 0.0, 0.3333333333333333, 0.16666666666666666]], [[0.0, 0.25, 0.0, 0.5, 0.25]], [[0.0, 0.5, 0.0, 0.0, 0.5]], [[0.0, 1.0, 0.0, 0.0, 0.0]], [[0.0, 0.0, 0.0, 0.0, 1.0]], [[0.0, 0.0, 0.0, 1.0, 0.0]], [[1.0, 0.0, 0.0, 0.0, 0.0]]]}, {"children_left": [1, -1, -1], "children_right": [2, -1, -1], "feature": [1, -2, -2], "threshold": [0.3997844159603119, -2.0, -2.0], "value": [[[0.8333333333333334, 0.0, 0.0, 0.16666666666666666, 0.0]], [[1.0, 0.0, 0.0, 0.0, 0.0]], [[0.0, 0.0, 0.0, 1.0, 0.0]]]}, {"children_left": [1, -1, 3, -1, 5, -1, -1], "children_right": [2, -1, 4, -1, 6, -1, -1], "feature": [58, -2, 109, -2, 104, -2, -2], "threshold": [0.18999017030000687, -2.0, 0.20321962982416153, -2.0, 0.38550737500190735, -2.0, -2.0], "value": [[[0.5, 0.16666666666666666, 0.16666666666666666, 0.0, 0.16666666666666666]], [[1.0, 0.0, 0.0, 0.0, 0.0]], [[0.0, 0.3333333333333333, 0.3333333333333333, 0.0, 0.3333333333333333]], [[0.0, 0.0, 1.0, 0.0, 0.0]], [[0.0, 0.5, 0.0, 0.0, 0.5]], [[0.0, 1.0, 0.0, 0.0, 0.0]], [[0.0, 0.0, 0.0, 0.0, 1.0]]]}, {"children_left": [1, -1, 3, -1, -1], "children_right": [2, -1, 4, -1, -1], "feature": [93, -2, 126, -2, -2], "threshold": [0.0877675861120224, -2.0, 0.3336980640888214, -2.0, -2.0], "value": [[[0.5, 0.0, 0.16666666666666666, 0.3333333333333333, 0.0]], [[1.0, 0.0, 0.0, 0.0, 0.0]], [[0.0, 0.0, 0.3333333333333333, 0.6666666666666666, 0.0]], [[0.0, 0.0, 0.0, 1.0, 0.0]], [[0.0, 0.0, 1.0, 0.0, 0.0]]]}, {"children_left": [1, 2, -1, -1, -1], "children_right": [4, 3, -1, -1, -1], "feature": [14, 93, -2, -2, -2], "threshold": [0.6036291718482971, 0.10105479136109352, -2.0, -2.0, -2.0], "value": [[[0.5, 0.3333333333333333, 0.0, 0.0, 0.16666666666666666]], [[0.0, 0.6666666666666666, 0.0, 0.0, 0.3333333333333333]], [[0.0, 1.0, 0.0, 0.0, 0.0]], [[0.0, 0.0, 0.0, 0.0, 1.0]], [[1.0, 0.0, 0.0, 0.0, 0.0]]]}, {"children_left": [1, -1, -1], "children_right": [2, -1, -1], "feature": [184, -2, -2], "threshold": [0.3565564677119255, -2.0, -2.0], "value": [[[0.6666666666666666, 0.3333333333333333, 0.0, 0.0, 0.0]], [[0.0, 1.0, 0.0, 0.0, 0.0]], [[1.0, 0.0, 0.0, 0.0, 0.0]]]}, {"children_left": [1, -1, 3, -1, 5, -1, -1], "children_right": [2, -1, 4, -1, 6, -1, -1], "feature": [134, -2, 72, -2, 82, -2, -2], "threshold": [0.0732402540743351, -2.0, 0.2000560536980629, -2.0, 0.4621565416455269, -2.0, -2.0], "value": [[[0.16666666666666666, 0.16666666666666666, 0.0, 0.5, 0.16666666666666666]], [[0.0, 0.0, 0.0, 1.0, 0.0]], [[0.3333333333333333, 0.3333333333333333, 0.0, 0.0, 0.3333333333333333]], [[0.0, 1.0, 0.0, 0.0, 0.0]], [[0.5, 0.0, 0.0, 0.0, 0.5]], [[1.0, 0.0, 0.0, 0.0, 0.0]], [[0.0, 0.0, 0.0, 0.0, 1.0]]]}, {"children_left": [1, 2, -1, 4, -1, -1, -1], "children_right": [6, 3, -1, 5, -1, -1, -1], "feature": [174, 101, -2, 46, -2, -2, -2], "threshold": [0.49063026905059814, 0.31010212004184723, -2.0, 0.4400624483823776, -2.0, -2.0, -2.0], "value": [[[0.5, 0.16666666666666666, 0.16666666666666666, 0.16666666666666666, 0.0]], [[0.0, 0.3333333333333333, 0.3333333333333333, 0.3333333333333333, 0.0]], [[0.0, 1.0, 0.0, 0.0, 0.0]], [[0.0, 0.0, 0.5, 0.5, 0.0]], [[0.0, 0.0, 1.0, 0.0, 0.0]], [[0.0, 0.0, 0.0, 1.0, 0.0]], [[1.0, 0.0, 0.0, 0.0, 0.0]]]}, {"children_left": [1, -1, 3, -1, -1], "children_right": [2, -1, 4, -1, -1], "feature": [105, -2, 48, -2, -2], "threshold": [0.13901746273040771, -2.0, 0.530412033200264, -2.0, -2.0], "value": [[[0.3333333333333333, 0.5, 0.0, 0.16666666666666666, 0.0]], [[0.0, 1.0, 0.0, 0.0, 0.0]], [[0.6666666666666666, 0.0, 0.0, 0.3333333333333333, 0.0]], [[0.0, 0.0, 0.0, 1.0, 0.0]], [[1.0, 0.0, 0.0, 0.0, 0.0]]]}, {"children_left": [1, 2, -1, 4, -1, -1, -1], "children_right": [6, 3, -1, 5, -1, -1, -1], "feature": [76, 15, -2, 190, -2, -2, -2], "threshold": [0.47157102823257446, 0.3659822344779968, -2.0, 0.22563941776752472, -2.0, -2.0, -2.0], "value": [[[0.16666666666666666, 0.0, 0.16666666666666666, 0.5, 0.16666666666666666]], [[0.3333333333333333, 0.0, 0.3333333333333333, 0.0, 0.3333333333333333]], [[0.0, 0.0, 0.0, 0.0, 1.0]], [[0.5, 0.0, 0.5, 0.0, 0.0]], [[0.0, 0.0, 1.0, 0.0, 0.0]], [[1.0, 0.0, 0.0, 0.0, 0.0]], [[0.0, 0.0, 0.0, 1.0, 0.0]]]}, {"children_left": [1, -1, 3, -1, 5, -1, -1], "children_right": [2, -1, 4, -1, 6, -1, -1], "feature": [127, -2, 145, -2, 81, -2, -2], "threshold": [0.20677253231406212, -2.0, 0.15664006024599075, -2.0, 0.3463008776307106, -2.0, -2.0], "value": [[[0.3333333333333333, 0.16666666666666666, 0.0, 0.16666666666666666, 0.3333333333333333]], [[1.0, 0.0, 0.0, 0.0, 0.0]], [[0.0, 0.25, 0.0, 0.25, 0.5]], [[0.0, 0.0, 0.0, 0.0, 1.0]], [[0.0, 0.5, 0.0, 0.5, 0.0]], [[0.0, 1.0, 0.0, 0.0, 0.0]], [[0.0, 0.0, 0.0, 1.0, 0.0]]]}, {"children_left": [1, 2, -1, 4, -1, -1, -1], "children_right": [6, 3, -1, 5, -1, -1, -1], "feature": [169, 86, -2, 175, -2, -2, -2], "threshold": [0.24271835386753082, 0.25597429275512695, -2.0, 0.24162840098142624, -2.0, -2.0, -2.0], "value": [[[0.16666666666666666, 0.3333333333333333, 0.3333333333333333, 0.0, 0.16666666666666666]], [[0.25, 0.5, 0.0, 0.0, 0.25]], [[0.0, 1.0, 0.0, 0.0, 0.0]], [[0.5, 0.0, 0.0, 0.0, 0.5]], [[0.0, 0.0, 0.0, 0.0, 1.0]], [[1.0, 0.0, 0.0, 0.0, 0.0]], [[0.0, 0.0, 1.0, 0.0, 0.0]]]}, {"children_left": [1, 2, 3, -1, -1, -1, -1], "children_right": [6, 5, 4, -1, -1, -1, -1], "feature": [89, 3, 156, -2, -2, -2, -2], "threshold": [0.7876828014850616, 0.8431792557239532, 0.28918981552124023, -2.0, -2.0, -2.0, -2.0], "value": [[[0.0, 0.16666666666666666, 0.3333333333333333, 0.16666666666666666, 0.3333333333333333]], [[0.0, 0.25, 0.5, 0.25, 0.0]], [[0.0, 0.5, 0.0, 0.5, 0.0]], [[0.0, 1.0, 0.0, 0.0, 0.0]], [[0.0, 0.0, 0.0, 1.0, 0.0]], [[0.0, 0.0, 1.0, 0.0, 0.0]], [[0.0, 0.0, 0.0, 0.0, 1.0]]]}, {"children_left": [-1], "children_right": [-1], "feature": [-2], "threshold": [-2.0], "value": [[[1.0, 0.0, 0.0, 0.0, 0.0]]]}, {"children_left": [1, -1, 3, 4, -1, -1, -1], "children_right": [2, -1, 6, 5, -1, -1, -1], "feature": [118, -2, 54, 90, -2, -2, -2], "threshold": [0.329092837870121, -2.0, 0.5475031286478043, 0.29506173729896545, -2.0, -2.0, -2.0], "value": [[[0.3333333333333333, 0.16666666666666666, 0.16666666666666666, 0.3333333333333333, 0.0]], [[1.0, 0.0, 0.0, 0.0, 0.0]], [[0.0, 0.25, 0.25, 0.5, 0.0]], [[0.0, 0.5, 0.5, 0.0, 0.0]], [[0.0, 1.0, 0.0, 0.0, 0.0]], [[0.0, 0.0, 1.0, 0.0, 0.0]], [[0.0, 0.0, 0.0, 1.0, 0.0]]]}, {"children_left": [1, 2, -1, -1, -1], "children_right": [4, 3, -1, -1, -1], "feature": [51, 23, -2, -2, -2], "threshold": [0.3799208849668503, 0.3276769742369652, -2.0, -2.0, -2.0], "value": [[[0.5, 0.16666666666666666, 0.3333333333333333, 0.0, 0.0]], [[0.0, 0.3333333333333333, 0.6666666666666666, 0.0, 0.0]], [[0.0, 0.0, 1.0, 0.0, 0.0]], [[0.0, 1.0, 0.0, 0.0, 0.0]], [[1.0, 0.0, 0.0, 0.0, 0.0]]]}, {"children_left": [1, -1, 3, -1, -1], "children_right": [2, -1, 4, -1, -1], "feature": [166, -2, 107, -2, -2], "threshold": [0.3896826356649399, -2.0, 0.3851810395717621, -2.0, -2.0], "value": [[[0.3333333333333333, 0.0, 0.3333333333333333, 0.3333333333333333, 0.0]], [[0.0, 0.0, 0.0, 1.0, 0.0]], [[0.5, 0.0, 0.5, 0.0, 0.0]], [[1.0, 0.0, 0.0, 0.0, 0.0]], [[0.0, 0.0, 1.0, 0.0, 0.0]]]}, {"children_left": [1, -1, 3, 4, -1, -1, -1], "children_right": [2, -1, 6, 5, -1, -1, -1], "feature": [166, -2, 64, 161, -2, -2, -2], "threshold": [0.2502267509698868, -2.0, 0.4187213182449341, 0.5101920515298843, -2.0, -2.0, -2.0], "value": [[[0.3333333333333333, 0.3333333333333333, 0.16666666666666666, 0.16666666666666666, 0.0]], [[0.0, 1.0, 0.0, 0.0, 0.0]], [[0.5, 0.0, 0.25, 0.25, 0.0]], [[0.0, 0.0, 0.5, 0.5, 0.0]], [[0.0, 0.0, 0.0, 1.0, 0.0]], [[0.0, 0.0, 1.0, 0.0, 0.0]], [[1.0, 0.0, 0.0, 0.0, 0.0]]]}, {"children_left": [1, -1, 3, 4, -1, -1, -1], "children_right": [2, -1, 6, 5, -1, -1, -1], "feature": [41, -2, 180, 202, -2, -2, -2], "threshold": [0.240070179104805, -2.0, 0.17584429681301117, 0.06961782276630402, -2.0, -2.0, -2.0], "value": [[[0.3333333333333333, 0.16666666666666666, 0.3333333333333333, 0.16666666666666666, 0.0]], [[1.0, 0.0, 0.0, 0.0, 0.0]], [[0.0, 0.25, 0.5, 0.25, 0.0]], [[0.0, 0.5, 0.0, 0.5, 0.0]], [[0.0, 1.0, 0.0, 0.0, 0.0]], [[0.0, 0.0, 0.0, 1.0, 0.0]], [[0.0, 0.0, 1.0, 0.0, 0.0]]]}, {"children_left": [1, 2, -1, 4, -1, 6, -1, -1, -1], "children_right": [8, 3, -1, 5, -1, 7, -1, -1, -1], "feature": [159, 171, -2, 163, -2, 139, -2, -2, -2], "threshold": [0.30389197170734406, 0.18853891268372536, -2.0, 0.2518482804298401, -2.0, 0.6475131511688232, -2.0, -2.0, -2.0], "value": [[[0.16666666666666666, 0.16666666666666666, 0.16666666666666666, 0.3333333333333333, 0.16666666666666666]], [[0.25, 0.25, 0.25, 0.0, 0.25]], [[0.0, 1.0, 0.0, 0.0, 0.0]], [[0.3333333333333333, 0.0, 0.3333333333333333, 0.0, 0.3333333333333333]], [[1.0, 0.0, 0.0, 0.0, 0.0]], [[0.0, 0.0, 0.5, 0.0, 0.5]], [[0.0, 0.0, 1.0, 0.0, 0.0]], [[0.0, 0.0, 0.0, 0.0, 1.0]], [[0.0, 0.0, 0.0, 1.0, 0.0]]]}, {"children_left": [1, -1, 3, -1, -1], "children_right": [2, -1, 4, -1, -1], "feature": [132, -2, 174, -2, -2], "threshold": [0.3681790381669998, -2.0, 0.38570279628038406, -2.0, -2.0], "value": [[[0.3333333333333333, 0.3333333333333333, 0.0, 0.3333333333333333, 0.0]], [[0.0, 0.0, 0.0, 1.0, 0.0]], [[0.5, 0.5, 0.0, 0.0, 0.0]], [[0.0, 1.0, 0.0, 0.0, 0.0]], [[1.0, 0.0, 0.0, 0.0, 0.0]]]}, {"children_left": [1, -1, 3, -1, 5, -1, -1], "children_right": [2, -1, 4, -1, 6, -1, -1], "feature": [8, -2, 209, -2, 206, -2, -2], "threshold": [0.4692467749118805, -2.0, 0.05410059541463852, -2.0, 0.1636582612991333, -2.0, -2.0], "value": [[[0.5, 0.16666666666666666, 0.0, 0.16666666666666666, 0.16666666666666666]], [[1.0, 0.0, 0.0, 0.0, 0.0]], [[0.0, 0.3333333333333333, 0.0, 0.3333333333333333, 0.3333333333333333]], [[0.0, 1.0, 0.0, 0.0, 0.0]], [[0.0, 0.0, 0.0, 0.5, 0.5]], [[0.0, 0.0, 0.0, 0.0, 1.0]], [[0.0, 0.0, 0.0, 1.0, 0.0]]]}, {"children_left": [1, 2, 3, -1, -1, -1, -1], "children_right": [6, 5, 4, -1, -1, -1, -1], "feature": [69, 178, 122, -2, -2, -2, -2], "threshold": [0.5140441656112671, 0.5626914352178574, 0.36097128689289093, -2.0, -2.0, -2.0, -2.0], "value": [[[0.3333333333333333, 0.16666666666666666, 0.16666666666666666, 0.0, 0.3333333333333333]], [[0.5, 0.25, 0.25, 0.0, 0.0]], [[0.0, 0.5, 0.5, 0.0, 0.0]], [[0.0, 0.0, 1.0, 0.0, 0.0]], [[0.0, 1.0, 0.0, 0.0, 0.0]], [[1.0, 0.0, 0.0, 0.0, 0.0]], [[0.0, 0.0, 0.0, 0.0, 1.0]]]}, {"children_left": [1, -1, 3, -1, 5, -1, -1], "children_right": [2, -1, 4, -1, 6, -1, -1], "feature": [38, -2, 180, -2, 146, -2, -2], "threshold": [0.2122846618294716, -2.0, 0.219044528901577, -2.0, 0.30635860934853554, -2.0, -2.0], "value": [[[0.16666666666666666, 0.5, 0.0, 0.16666666666666666, 0.16666666666666666]], [[0.0, 1.0, 0.0, 0.0, 0.0]], [[0.3333333333333333, 0.0, 0.0, 0.3333333333333333, 0.3333333333333333]], [[0.0, 0.0, 0.0, 1.0, 0.0]], [[0.5, 0.0, 0.0, 0.0, 0.5]], [[0.0, 0.0, 0.0, 0.0, 1.0]], [[1.0, 0.0, 0.0, 0.0, 0.0]]]}, {"children_left": [1, -1, 3, -1, 5, -1, -1], "children_right": [2, -1, 4, -1, 6, -1, -1], "feature": [191, -2, 174, -2, 18, -2, -2], "threshold": [0.2134191244840622, -2.0, 0.29528992623090744, -2.0, 0.533159926533699, -2.0, -2.0], "value": [[[0.16666666666666666, 0.3333333333333333, 0.16666666666666666, 0.0, 0.3333333333333333]], [[0.0, 1.0, 0.0, 0.0, 0.0]], [[0.25, 0.0, 0.25, 0.0, 0.5]], [[0.0, 0.0, 0.0, 0.0, 1.0]], [[0.5, 0.0, 0.5, 0.0, 0.0]], [[0.0, 0.0, 1.0, 0.0, 0.0]], [[1.0, 0.0, 0.0, 0.0, 0.0]]]}, {"children_left": [1, -1, 3, 4, -1, -1, -1], "children_right": [2, -1, 6, 5, -1, -1, -1], "feature": [82, -2, 67, 136, -2, -2, -2], "threshold": [0.4621565416455269, -2.0, 0.5880120396614075, 0.7668648362159729, -2.0, -2.0, -2.0], "value": [[[0.3333333333333333, 0.0, 0.16666666666666666, 0.3333333333333333, 0.16666666666666666]], [[1.0, 0.0, 0.0, 0.0, 0.0]], [[0.0, 0.0, 0.25, 0.5, 0.25]], [[0.0, 0.0, 0.5, 0.0, 0.5]], [[0.0, 0.0, 0.0, 0.0, 1.0]], [[0.0, 0.0, 1.0, 0.0, 0.0]], [[0.0, 0.0, 0.0, 1.0, 0.0]]]}, {"children_left": [1, -1, 3, -1, 5, -1, -1], "children_right": [2, -1, 4, -1, 6, -1, -1], "feature": [34, -2, 8, -2, 145, -2, -2], "threshold": [0.22559965401887894, -2.0, 0.4692467749118805, -2.0, 0.16444678604602814, -2.0, -2.0], "value": [[[0.3333333333333333, 0.0, 0.3333333333333333, 0.16666666666666666, 0.16666666666666666]], [[0.0, 0.0, 1.0, 0.0, 0.0]], [[0.5, 0.0, 0.0, 0.25, 0.25]], [[1.0, 0.0, 0.0, 0.0, 0.0]], [[0.0, 0.0, 0.0, 0.5, 0.5]], [[0.0, 0.0, 0.0, 0.0, 1.0]], [[0.0, 0.0, 0.0, 1.0, 0.0]]]}, {"children_left": [1, -1, 3, -1, 5, -1, -1], "children_right": [2, -1, 4, -1, 6, -1, -1], "feature": [189, -2, 91, -2, 191, -2, -2], "threshold": [0.07880108430981636, -2.0, 0.2696649506688118, -2.0, 0.39500489830970764, -2.0, -2.0], "value": [[[0.16666666666666666, 0.0, 0.16666666666666666, 0.3333333333333333, 0.3333333333333333]], [[0.0, 0.0, 0.0, 0.0, 1.0]], [[0.25, 0.0, 0.25, 0.5, 0.0]], [[0.0, 0.0, 0.0, 1.0, 0.0]], [[0.5, 0.0, 0.5, 0.0, 0.0]], [[1.0, 0.0, 0.0, 0.0, 0.0]], [[0.0, 0.0, 1.0, 0.0, 0.0]]]}, {"children_left": [1, -1, 3, -1, 5, -1, -1], "children_right": [2, -1, 4, -1, 6, -1, -1], "feature": [188, -2, 105, -2, 141, -2, -2], "threshold": [0.1855526939034462, -2.0, 0.13901746273040771, -2.0, 0.5509041100740433, -2.0, -2.0], "value": [[[0.16666666666666666, 0.16666666666666666, 0.16666666666666666, 0.0, 0.5]], [[0.0, 0.0, 0.0, 0.0, 1.0]], [[0.3333333333333333, 0.3333333333333333, 0.3333333333333333, 0.0, 0.0]], [[0.0, 1.0, 0.0, 0.0, 0.0]], [[0.5, 0.0, 0.5, 0.0, 0.0]], [[1.0, 0.0, 0.0, 0.0, 0.0]], [[0.0, 0.0, 1.0, 0.0, 0.0]]]}, {"children_left": [1, 2, -1, 4, -1, -1, -1], "children_right": [6, 3, -1, 5, -1, -1, -1], "feature": [198, 31, -2, 102, -2, -2, -2], "threshold": [0.13734271377325058, 0.33309902250766754, -2.0, 0.29837213456630707, -2.0, -2.0, -2.0], "value": [[[0.0, 0.16666666666666666, 0.16666666666666666, 0.16666666666666666, 0.5]], [[0.0, 0.3333333333333333, 0.3333333333333333, 0.3333333333333333, 0.0]], [[0.0, 0.0, 1.0, 0.0, 0.0]], [[0.0, 0.5, 0.0, 0.5, 0.0]], [[0.0, 1.0, 0.0, 0.0, 0.0]], [[0.0, 0.0, 0.0, 1.0, 0.0]], [[0.0, 0.0, 0.0, 0.0, 1.0]]]}, {"children_left": [1, 2, -1, 4, -1, -1, -1], "children_right": [6, 3, -1, 5, -1, -1, -1], "feature": [170, 186, -2, 44, -2, -2, -2], "threshold": [0.5524831712245941, 0.09718294814229012, -2.0, 0.6706487536430359, -2.0, -2.0, -2.0], "value": [[[0.16666666666666666, 0.16666666666666666, 0.5, 0.0, 0.16666666666666666]], [[0.3333333333333333, 0.3333333333333333, 0.0, 0.0, 0.3333333333333333]], [[0.0, 0.0, 0.0, 0.0, 1.0]], [[0.5, 0.5, 0.0, 0.0, 0.0]], [[1.0, 0.0, 0.0, 0.0, 0.0]], [[0.0, 1.0, 0.0, 0.0, 0.0]], [[0.0, 0.0, 1.0, 0.0, 0.0]]]}, {"children_left": [1, 2, -1, 4, -1, -1, -1], "children_right": [6, 3, -1, 5, -1, -1, -1], "feature": [14, 81, -2, 188, -2, -2, -2], "threshold": [0.7196978628635406, 0.5219680070877075, -2.0, 0.1771414875984192, -2.0, -2.0, -2.0], "value": [[[0.5, 0.0, 0.16666666666666666, 0.16666666666666666, 0.16666666666666666]], [[0.0, 0.0, 0.3333333333333333, 0.3333333333333333, 0.3333333333333333]], [[0.0, 0.0, 1.0, 0.0, 0.0]], [[0.0, 0.0, 0.0, 0.5, 0.5]], [[0.0, 0.0, 0.0, 0.0, 1.0]], [[0.0, 0.0, 0.0, 1.0, 0.0]], [[1.0, 0.0, 0.0, 0.0, 0.0]]]}, {"children_left": [1, -1, 3, -1, -1], "children_right": [2, -1, 4, -1, -1], "feature": [181, -2, 158, -2, -2], "threshold": [0.17544573545455933, -2.0, 0.10831582546234131, -2.0, -2.0], "value": [[[0.16666666666666666, 0.6666666666666666, 0.0, 0.16666666666666666, 0.0]], [[0.0, 1.0, 0.0, 0.0, 0.0]], [[0.5, 0.0, 0.0, 0.5, 0.0]], [[1.0, 0.0, 0.0, 0.0, 0.0]], [[0.0, 0.0, 0.0, 1.0, 0.0]]]}, {"children_left": [1, 2, -1, -1, -1], "children_right": [4, 3, -1, -1, -1], "feature": [79, 119, -2, -2, -2], "threshold": [0.3811672180891037, 0.10983956977725029, -2.0, -2.0, -2.0], "value": [[[0.16666666666666666, 0.3333333333333333, 0.0, 0.0, 0.5]], [[0.3333333333333333, 0.6666666666666666, 0.0, 0.0, 0.0]], [[0.0, 1.0, 0.0, 0.0, 0.0]], [[1.0, 0.0, 0.0, 0.0, 0.0]], [[0.0, 0.0, 0.0, 0.0, 1.0]]]}, {"children_left": [1, 2, -1, -1, -1], "children_right": [4, 3, -1, -1, -1], "feature": [91, 24, -2, -2, -2], "threshold": [0.3501412570476532, 0.7251974046230316, -2.0, -2.0, -2.0], "value": [[[0.0, 0.16666666666666666, 0.0, 0.3333333333333333, 0.5]], [[0.0, 0.3333333333333333, 0.0, 0.6666666666666666, 0.0]], [[0.0, 1.0, 0.0, 0.0, 0.0]], [[0.0, 0.0, 0.0, 1.0, 0.0]], [[0.0, 0.0, 0.0, 0.0, 1.0]]]}, {"children_left": [1, -1, 3, -1, -1], "children_right": [2, -1, 4, -1, -1], "feature": [41, -2, 209, -2, -2], "threshold": [0.19022136926651, -2.0, 0.08757564052939415, -2.0, -2.0], "value": [[[0.3333333333333333, 0.0, 0.0, 0.16666666666666666, 0.5]], [[0.0, 0.0, 0.0, 0.0, 1.0]], [[0.6666666666666666, 0.0, 0.0, 0.3333333333333333, 0.0]], [[0.0, 0.0, 0.0, 1.0, 0.0]], [[1.0, 0.0, 0.0, 0.0, 0.0]]]}, {"children_left": [1, 2, -1, -1, -1], "children_right": [4, 3, -1, -1, -1], "feature": [95, 51, -2, -2, -2], "threshold": [0.3702917546033859, 0.32104402780532837, -2.0, -2.0, -2.0], "value": [[[0.5, 0.0, 0.3333333333333333, 0.16666666666666666, 0.0]], [[0.0, 0.0, 0.6666666666666666, 0.3333333333333333, 0.0]], [[0.0, 0.0, 1.0, 0.0, 0.0]], [[0.0, 0.0, 0.0, 1.0, 0.0]], [[1.0, 0.0, 0.0, 0.0, 0.0]]]}, {"children_left": [1, -1, 3, -1, 5, -1, 7, -1, -1], "children_right": [2, -1, 4, -1, 6, -1, 8, -1, -1], "feature": [128, -2, 38, -2, 181, -2, 58, -2, -2], "threshold": [0.5010636150836945, -2.0, 0.2122846618294716, -2.0, 0.26988446712493896, -2.0, 0.2055603265762329, -2.0, -2.0], "value": [[[0.16666666666666666, 0.16666666666666666, 0.16666666666666666, 0.3333333333333333, 0.16666666666666666]], [[0.0, 0.0, 0.0, 1.0, 0.0]], [[0.25, 0.25, 0.25, 0.0, 0.25]], [[0.0, 1.0, 0.0, 0.0, 0.0]], [[0.3333333333333333, 0.0, 0.3333333333333333, 0.0, 0.3333333333333333]], [[0.0, 0.0, 1.0, 0.0, 0.0]], [[0.5, 0.0, 0.0, 0.0, 0.5]], [[1.0, 0.0, 0.0, 0.0, 0.0]], [[0.0, 0.0, 0.0, 0.0, 1.0]]]}, {"children_left": [1, -1, 3, -1, -1], "children_right": [2, -1, 4, -1, -1], "feature": [28, -2, 122, -2, -2], "threshold": [0.44195927679538727, -2.0, 0.2726097106933594, -2.0, -2.0], "value": [[[0.0, 0.3333333333333333, 0.0, 0.16666666666666666, 0.5]], [[0.0, 0.0, 0.0, 0.0, 1.0]], [[0.0, 0.6666666666666666, 0.0, 0.3333333333333333, 0.0]], [[0.0, 0.0, 0.0, 1.0, 0.0]], [[0.0, 1.0, 0.0, 0.0, 0.0]]]}, {"children_left": [1, -1, 3, -1, -1], "children_right": [2, -1, 4, -1, -1], "feature": [153, -2, 157, -2, -2], "threshold": [0.19693779945373535, -2.0, 0.29331545531749725, -2.0, -2.0], "value": [[[0.3333333333333333, 0.0, 0.0, 0.3333333333333333, 0.3333333333333333]], [[0.0, 0.0, 0.0, 1.0, 0.0]], [[0.5, 0.0, 0.0, 0.0, 0.5]], [[0.0, 0.0, 0.0, 0.0, 1.0]], [[1.0, 0.0, 0.0, 0.0, 0.0]]]}, {"children_left": [1, 2, 3, -1, -1, -1, -1], "children_right": [6, 5, 4, -1, -1, -1, -1], "feature": [79, 166, 25, -2, -2, -2, -2], "threshold": [0.5551516562700272, 0.4808585196733475, 0.7262067496776581, -2.0, -2.0, -2.0, -2.0], "value": [[[0.16666666666666666, 0.16666666666666666, 0.3333333333333333, 0.3333333333333333, 0.0]], [[0.25, 0.25, 0.5, 0.0, 0.0]], [[0.5, 0.5, 0.0, 0.0, 0.0]], [[0.0, 1.0, 0.0, 0.0, 0.0]], [[1.0, 0.0, 0.0, 0.0, 0.0]], [[0.0, 0.0, 1.0, 0.0, 0.0]], [[0.0, 0.0, 0.0, 1.0, 0.0]]]}, {"children_left": [1, -1, 3, -1, 5, -1, -1], "children_right": [2, -1, 4, -1, 6, -1, -1], "feature": [122, -2, 10, -2, 187, -2, -2], "threshold": [0.08460242301225662, -2.0, 0.5733742117881775, -2.0, 0.22435319423675537, -2.0, -2.0], "value": [[[0.5, 0.16666666666666666, 0.16666666666666666, 0.16666666666666666, 0.0]], [[1.0, 0.0, 0.0, 0.0, 0.0]], [[0.0, 0.3333333333333333, 0.3333333333333333, 0.3333333333333333, 0.0]], [[0.0, 1.0, 0.0, 0.0, 0.0]], [[0.0, 0.0, 0.5, 0.5, 0.0]], [[0.0, 0.0, 0.0, 1.0, 0.0]], [[0.0, 0.0, 1.0, 0.0, 0.0]]]}, {"children_left": [1, -1, 3, -1, 5, -1, -1], "children_right": [2, -1, 4, -1, 6, -1, -1], "feature": [25, -2, 140, -2, 96, -2, -2], "threshold": [0.6317634582519531, -2.0, 0.6200210750102997, -2.0, 0.39463797211647034, -2.0, -2.0], "value": [[[0.16666666666666666, 0.16666666666666666, 0.16666666666666666, 0.5, 0.0]], [[0.0, 0.0, 0.0, 1.0, 0.0]], [[0.3333333333333333, 0.3333333333333333, 0.3333333333333333, 0.0, 0.0]], [[0.0, 1.0, 0.0, 0.0, 0.0]], [[0.5, 0.0, 0.5, 0.0, 0.0]], [[0.0, 0.0, 1.0, 0.0, 0.0]], [[1.0, 0.0, 0.0, 0.0, 0.0]]]}, {"children_left": [1, 2, -1, -1, -1], "children_right": [4, 3, -1, -1, -1], "feature": [180, 130, -2, -2, -2], "threshold": [0.2869841828942299, 0.45668990910053253, -2.0, -2.0, -2.0], "value": [[[0.5, 0.16666666666666666, 0.0, 0.3333333333333333, 0.0]], [[0.0, 0.3333333333333333, 0.0, 0.6666666666666666, 0.0]], [[0.0, 0.0, 0.0, 1.0, 0.0]], [[0.0, 1.0, 0.0, 0.0, 0.0]], [[1.0, 0.0, 0.0, 0.0, 0.0]]]}, {"children_left": [1, -1, 3, 4, -1, -1, -1], "children_right": [2, -1, 6, 5, -1, -1, -1], "feature": [157, -2, 172, 84, -2, -2, -2], "threshold": [0.279209166765213, -2.0, 0.2819058746099472, 0.5818390846252441, -2.0, -2.0, -2.0], "value": [[[0.3333333333333333, 0.0, 0.16666666666666666, 0.16666666666666666, 0.3333333333333333]], [[0.0, 0.0, 0.0, 0.0, 1.0]], [[0.5, 0.0, 0.25, 0.25, 0.0]], [[0.0, 0.0, 0.5, 0.5, 0.0]], [[0.0, 0.0, 1.0, 0.0, 0.0]], [[0.0, 0.0, 0.0, 1.0, 0.0]], [[1.0, 0.0, 0.0, 0.0, 0.0]]]}, {"children_left": [1, 2, -1, -1, -1], "children_right": [4, 3, -1, -1, -1], "feature": [57, 78, -2, -2, -2], "threshold": [0.1593695543706417, 0.2137111872434616, -2.0, -2.0, -2.0], "value": [[[0.16666666666666666, 0.3333333333333333, 0.5, 0.0, 0.0]], [[0.3333333333333333, 0.6666666666666666, 0.0, 0.0, 0.0]], [[1.0, 0.0, 0.0, 0.0, 0.0]], [[0.0, 1.0, 0.0, 0.0, 0.0]], [[0.0, 0.0, 1.0, 0.0, 0.0]]]}, {"children_left": [1, -1, 3, -1, -1], "children_right": [2, -1, 4, -1, -1], "feature": [115, -2, 181, -2, -2], "threshold": [0.49291132390499115, -2.0, 0.26988446712493896, -2.0, -2.0], "value": [[[0.5, 0.0, 0.16666666666666666, 0.0, 0.3333333333333333]], [[1.0, 0.0, 0.0, 0.0, 0.0]], [[0.0, 0.0, 0.3333333333333333, 0.0, 0.6666666666666666]], [[0.0, 0.0, 1.0, 0.0, 0.0]], [[0.0, 0.0, 0.0, 0.0, 1.0]]]}, {"children_left": [1, 2, -1, -1, -1], "children_right": [4, 3, -1, -1, -1], "feature": [166, 177, -2, -2, -2], "threshold": [0.3578849285840988, 0.13624654710292816, -2.0, -2.0, -2.0], "value": [[[0.5, 0.16666666666666666, 0.0, 0.0, 0.3333333333333333]], [[0.0, 0.3333333333333333, 0.0, 0.0, 0.6666666666666666]], [[0.0, 1.0, 0.0, 0.0, 0.0]], [[0.0, 0.0, 0.0, 0.0, 1.0]], [[1.0, 0.0, 0.0, 0.0, 0.0]]]}, {"children_left": [1, -1, -1], "children_right": [2, -1, -1], "feature": [3, -2, -2], "threshold": [0.6254898905754089, -2.0, -2.0], "value": [[[0.6666666666666666, 0.0, 0.0, 0.3333333333333333, 0.0]], [[1.0, 0.0, 0.0, 0.0, 0.0]], [[0.0, 0.0, 0.0, 1.0, 0.0]]]}, {"children_left": [1, 2, -1, -1, -1], "children_right": [4, 3, -1, -1, -1], "feature": [197, 112, -2, -2, -2], "threshold": [0.22903455048799515, 0.28495827317237854, -2.0, -2.0, -2.0], "value": [[[0.5, 0.16666666666666666, 0.3333333333333333, 0.0, 0.0]], [[0.0, 0.3333333333333333, 0.6666666666666666, 0.0, 0.0]], [[0.0, 0.0, 1.0, 0.0, 0.0]], [[0.0, 1.0, 0.0, 0.0, 0.0]], [[1.0, 0.0, 0.0, 0.0, 0.0]]]}, {"children_left": [1, -1, 3, -1, -1], "children_right": [2, -1, 4, -1, -1], "feature": [194, -2, 1, -2, -2], "threshold": [0.16555499657988548, -2.0, 0.455058753490448, -2.0, -2.0], "value": [[[0.5, 0.16666666666666666, 0.3333333333333333, 0.0, 0.0]], [[1.0, 0.0, 0.0, 0.0, 0.0]], [[0.0, 0.3333333333333333, 0.6666666666666666, 0.0, 0.0]], [[0.0, 1.0, 0.0, 0.0, 0.0]], [[0.0, 0.0, 1.0, 0.0, 0.0]]]}, {"children_left": [1, 2, -1, 4, -1, -1, -1], "children_right": [6, 3, -1, 5, -1, -1, -1], "feature": [201, 175, -2, 49, -2, -2, -2], "threshold": [0.29069750756025314, 0.09319322183728218, -2.0, 0.3005514591932297, -2.0, -2.0, -2.0], "value": [[[0.3333333333333333, 0.16666666666666666, 0.3333333333333333, 0.0, 0.16666666666666666]], [[0.0, 0.25, 0.5, 0.0, 0.25]], [[0.0, 0.0, 1.0, 0.0, 0.0]], [[0.0, 0.5, 0.0, 0.0, 0.5]], [[0.0, 1.0, 0.0, 0.0, 0.0]], [[0.0, 0.0, 0.0, 0.0, 1.0]], [[1.0, 0.0, 0.0, 0.0, 0.0]]]}, {"children_left": [1, 2, -1, -1, -1], "children_right": [4, 3, -1, -1, -1], "feature": [91, 40, -2, -2, -2], "threshold": [0.3758877068758011, 0.3050697222352028, -2.0, -2.0, -2.0], "value": [[[0.5, 0.16666666666666666, 0.0, 0.0, 0.3333333333333333]], [[0.0, 0.3333333333333333, 0.0, 0.0, 0.6666666666666666]], [[0.0, 1.0, 0.0, 0.0, 0.0]], [[0.0, 0.0, 0.0, 0.0, 1.0]], [[1.0, 0.0, 0.0, 0.0, 0.0]]]}, {"children_left": [1, -1, 3, -1, -1], "children_right": [2, -1, 4, -1, -1], "feature": [64, -2, 70, -2, -2], "threshold": [0.31339702010154724, -2.0, 0.4411000460386276, -2.0, -2.0], "value": [[[0.16666666666666666, 0.0, 0.5, 0.0, 0.3333333333333333]], [[0.0, 0.0, 1.0, 0.0, 0.0]], [[0.3333333333333333, 0.0, 0.0, 0.0, 0.6666666666666666]], [[1.0, 0.0, 0.0, 0.0, 0.0]], [[0.0, 0.0, 0.0, 0.0, 1.0]]]}, {"children_left": [1, -1, 3, -1, 5, -1, -1], "children_right": [2, -1, 4, -1, 6, -1, -1], "feature": [123, -2, 142, -2, 104, -2, -2], "threshold": [0.17531512677669525, -2.0, 0.48962873220443726, -2.0, 0.38550737500190735, -2.0, -2.0], "value": [[[0.3333333333333333, 0.16666666666666666, 0.0, 0.3333333333333333, 0.16666666666666666]], [[1.0, 0.0, 0.0, 0.0, 0.0]], [[0.0, 0.25, 0.0, 0.5, 0.25]], [[0.0, 0.0, 0.0, 1.0, 0.0]], [[0.0, 0.5, 0.0, 0.0, 0.5]], [[0.0, 1.0, 0.0, 0.0, 0.0]], [[0.0, 0.0, 0.0, 0.0, 1.0]]]}, {"children_left": [1, -1, 3, 4, -1, -1, -1], "children_right": [2, -1, 6, 5, -1, -1, -1], "feature": [133, -2, 97, 85, -2, -2, -2], "threshold": [0.2863314375281334, -2.0, 0.31757330894470215, 0.46057186275720596, -2.0, -2.0, -2.0], "value": [[[0.3333333333333333, 0.16666666666666666, 0.3333333333333333, 0.0, 0.16666666666666666]], [[1.0, 0.0, 0.0, 0.0, 0.0]], [[0.0, 0.25, 0.5, 0.0, 0.25]], [[0.0, 0.5, 0.0, 0.0, 0.5]], [[0.0, 1.0, 0.0, 0.0, 0.0]], [[0.0, 0.0, 0.0, 0.0, 1.0]], [[0.0, 0.0, 1.0, 0.0, 0.0]]]}, {"children_left": [1, -1, 3, -1, 5, -1, -1], "children_right": [2, -1, 4, -1, 6, -1, -1], "feature": [176, -2, 8, -2, 114, -2, -2], "threshold": [0.043783605098724365, -2.0, 0.4056363105773926, -2.0, 0.45883917808532715, -2.0, -2.0], "value": [[[0.0, 0.5, 0.16666666666666666, 0.16666666666666666, 0.16666666666666666]], [[0.0, 1.0, 0.0, 0.0, 0.0]], [[0.0, 0.0, 0.3333333333333333, 0.3333333333333333, 0.3333333333333333]], [[0.0, 0.0, 1.0, 0.0, 0.0]], [[0.0, 0.0, 0.0, 0.5, 0.5]], [[0.0, 0.0, 0.0, 1.0, 0.0]], [[0.0, 0.0, 0.0, 0.0, 1.0]]]}, {"children_left": [1, 2, -1, -1, -1], "children_right": [4, 3, -1, -1, -1], "feature": [30, 153, -2, -2, -2], "threshold": [0.7032187283039093, 0.22098015248775482, -2.0, -2.0, -2.0], "value": [[[0.5, 0.0, 0.0, 0.3333333333333333, 0.16666666666666666]], [[0.0, 0.0, 0.0, 0.6666666666666666, 0.3333333333333333]], [[0.0, 0.0, 0.0, 1.0, 0.0]], [[0.0, 0.0, 0.0, 0.0, 1.0]], [[1.0, 0.0, 0.0, 0.0, 0.0]]]}, {"children_left": [1, -1, 3, -1, -1], "children_right": [2, -1, 4, -1, -1], "feature": [75, -2, 59, -2, -2], "threshold": [0.23694506287574768, -2.0, 0.34970079362392426, -2.0, -2.0], "value": [[[0.6666666666666666, 0.0, 0.16666666666666666, 0.16666666666666666, 0.0]], [[1.0, 0.0, 0.0, 0.0, 0.0]], [[0.0, 0.0, 0.5, 0.5, 0.0]], [[0.0, 0.0, 1.0, 0.0, 0.0]], [[0.0, 0.0, 0.0, 1.0, 0.0]]]}, {"children_left": [1, 2, -1, -1, -1], "children_right": [4, 3, -1, -1, -1], "feature": [56, 164, -2, -2, -2], "threshold": [0.4811393469572067, 0.39949099719524384, -2.0, -2.0, -2.0], "value": [[[0.0, 0.0, 0.16666666666666666, 0.5, 0.3333333333333333]], [[0.0, 0.0, 0.3333333333333333, 0.0, 0.6666666666666666]], [[0.0, 0.0, 1.0, 0.0, 0.0]], [[0.0, 0.0, 0.0, 0.0, 1.0]], [[0.0, 0.0, 0.0, 1.0, 0.0]]]}, {"children_left": [1, 2, -1, -1, -1], "children_right": [4, 3, -1, -1, -1], "feature": [198, 71, -2, -2, -2], "threshold": [0.17164310067892075, 0.5738461315631866, -2.0, -2.0, -2.0], "value": [[[0.5, 0.0, 0.3333333333333333, 0.0, 0.16666666666666666]], [[0.0, 0.0, 0.6666666666666666, 0.0, 0.3333333333333333]], [[0.0, 0.0, 1.0, 0.0, 0.0]], [[0.0, 0.0, 0.0, 0.0, 1.0]], [[1.0, 0.0, 0.0, 0.0, 0.0]]]}, {"children_left": [1, 2, -1, 4, -1, -1, -1], "children_right": [6, 3, -1, 5, -1, -1, -1], "feature": [35, 160, -2, 122, -2, -2, -2], "threshold": [0.39030297100543976, 0.24887914210557938, -2.0, 0.3846072107553482, -2.0, -2.0, -2.0], "value": [[[0.16666666666666666, 0.16666666666666666, 0.5, 0.0, 0.16666666666666666]], [[0.3333333333333333, 0.3333333333333333, 0.0, 0.0, 0.3333333333333333]], [[1.0, 0.0, 0.0, 0.0, 0.0]], [[0.0, 0.5, 0.0, 0.0, 0.5]], [[0.0, 0.0, 0.0, 0.0, 1.0]], [[0.0, 1.0, 0.0, 0.0, 0.0]], [[0.0, 0.0, 1.0, 0.0, 0.0]]]}, {"children_left": [1, 2, -1, 4, -1, -1, -1], "children_right": [6, 3, -1, 5, -1, -1, -1], "feature": [145, 126, -2, 200, -2, -2, -2], "threshold": [0.3247276544570923, 0.3688139319419861, -2.0, 0.16026999056339264, -2.0, -2.0, -2.0], "value": [[[0.5, 0.16666666666666666, 0.0, 0.16666666666666666, 0.16666666666666666]], [[0.0, 0.3333333333333333, 0.0, 0.3333333333333333, 0.3333333333333333]], [[0.0, 0.0, 0.0, 1.0, 0.0]], [[0.0, 0.5, 0.0, 0.0, 0.5]], [[0.0, 1.0, 0.0, 0.0, 0.0]], [[0.0, 0.0, 0.0, 0.0, 1.0]], [[1.0, 0.0, 0.0, 0.0, 0.0]]]}, {"children_left": [1, 2, 3, -1, -1, -1, -1], "children_right": [6, 5, 4, -1, -1, -1, -1], "feature": [60, 50, 172, -2, -2, -2, -2], "threshold": [0.45418402552604675, 0.36217451095581055, 0.29455552995204926, -2.0, -2.0, -2.0, -2.0], "value": [[[0.3333333333333333, 0.3333333333333333, 0.16666666666666666, 0.0, 0.16666666666666666]], [[0.5, 0.0, 0.25, 0.0, 0.25]], [[0.0, 0.0, 0.5, 0.0, 0.5]], [[0.0, 0.0, 1.0, 0.0, 0.0]], [[0.0, 0.0, 0.0, 0.0, 1.0]], [[1.0, 0.0, 0.0, 0.0, 0.0]], [[0.0, 1.0, 0.0, 0.0, 0.0]]]}, {"children_left": [1, -1, 3, -1, 5, -1, 7, -1, -1], "children_right": [2, -1, 4, -1, 6, -1, 8, -1, -1], "feature": [93, -2, 141, -2, 58, -2, 94, -2, -2], "threshold": [0.0457766093313694, -2.0, 0.5125962644815445, -2.0, 0.2465120628476143, -2.0, 0.26204460859298706, -2.0, -2.0], "value": [[[0.3333333333333333, 0.16666666666666666, 0.16666666666666666, 0.16666666666666666, 0.16666666666666666]], [[1.0, 0.0, 0.0, 0.0, 0.0]], [[0.0, 0.25, 0.25, 0.25, 0.25]], [[0.0, 0.0, 0.0, 1.0, 0.0]], [[0.0, 0.3333333333333333, 0.3333333333333333, 0.0, 0.3333333333333333]], [[0.0, 1.0, 0.0, 0.0, 0.0]], [[0.0, 0.0, 0.5, 0.0, 0.5]], [[0.0, 0.0, 0.0, 0.0, 1.0]], [[0.0, 0.0, 1.0, 0.0, 0.0]]]}, {"children_left": [1, 2, -1, 4, -1, -1, -1], "children_right": [6, 3, -1, 5, -1, -1, -1], "feature": [14, 80, -2, 21, -2, -2, -2], "threshold": [0.7196978628635406, 0.24330837279558182, -2.0, 0.46130000054836273, -2.0, -2.0, -2.0], "value": [[[0.5, 0.16666666666666666, 0.16666666666666666, 0.16666666666666666, 0.0]], [[0.0, 0.3333333333333333, 0.3333333333333333, 0.3333333333333333, 0.0]], [[0.0, 1.0, 0.0, 0.0, 0.0]], [[0.0, 0.0, 0.5, 0.5, 0.0]], [[0.0, 0.0, 0.0, 1.0, 0.0]], [[0.0, 0.0, 1.0, 0.0, 0.0]], [[1.0, 0.0, 0.0, 0.0, 0.0]]]}, {"children_left": [1, 2, -1, -1, -1], "children_right": [4, 3, -1, -1, -1], "feature": [160, 139, -2, -2, -2], "threshold": [0.35869714617729187, 0.389915619045496, -2.0, -2.0, -2.0], "value": [[[0.3333333333333333, 0.16666666666666666, 0.0, 0.5, 0.0]], [[0.6666666666666666, 0.3333333333333333, 0.0, 0.0, 0.0]], [[1.0, 0.0, 0.0, 0.0, 0.0]], [[0.0, 1.0, 0.0, 0.0, 0.0]], [[0.0, 0.0, 0.0, 1.0, 0.0]]]}, {"children_left": [1, -1, 3, -1, 5, -1, -1], "children_right": [2, -1, 4, -1, 6, -1, -1], "feature": [53, -2, 202, -2, 23, -2, -2], "threshold": [0.16958697140216827, -2.0, 0.06961782276630402, -2.0, 0.4521995261311531, -2.0, -2.0], "value": [[[0.5, 0.16666666666666666, 0.16666666666666666, 0.16666666666666666, 0.0]], [[1.0, 0.0, 0.0, 0.0, 0.0]], [[0.0, 0.3333333333333333, 0.3333333333333333, 0.3333333333333333, 0.0]], [[0.0, 1.0, 0.0, 0.0, 0.0]], [[0.0, 0.0, 0.5, 0.5, 0.0]], [[0.0, 0.0, 1.0, 0.0, 0.0]], [[0.0, 0.0, 0.0, 1.0, 0.0]]]}, {"children_left": [1, 2, -1, -1, -1], "children_right": [4, 3, -1, -1, -1], "feature": [33, 199, -2, -2, -2], "threshold": [0.4888700246810913, 0.14620769023895264, -2.0, -2.0, -2.0], "value": [[[0.5, 0.3333333333333333, 0.16666666666666666, 0.0, 0.0]], [[0.0, 0.6666666666666666, 0.3333333333333333, 0.0, 0.0]], [[0.0, 1.0, 0.0, 0.0, 0.0]], [[0.0, 0.0, 1.0, 0.0, 0.0]], [[1.0, 0.0, 0.0, 0.0, 0.0]]]}, {"children_left": [1, 2, -1, 4, -1, -1, -1], "children_right": [6, 3, -1, 5, -1, -1, -1], "feature": [67, 197, -2, 140, -2, -2, -2], "threshold": [0.5880120396614075, 0.07739970833063126, -2.0, 0.704093337059021, -2.0, -2.0, -2.0], "value": [[[0.16666666666666666, 0.16666666666666666, 0.0, 0.5, 0.16666666666666666]], [[0.3333333333333333, 0.3333333333333333, 0.0, 0.0, 0.3333333333333333]], [[0.0, 1.0, 0.0, 0.0, 0.0]], [[0.5, 0.0, 0.0, 0.0, 0.5]], [[1.0, 0.0, 0.0, 0.0, 0.0]], [[0.0, 0.0, 0.0, 0.0, 1.0]], [[0.0, 0.0, 0.0, 1.0, 0.0]]]}, {"children_left": [1, -1, 3, -1, 5, -1, -1], "children_right": [2, -1, 4, -1, 6, -1, -1], "feature": [60, -2, 184, -2, 143, -2, -2], "threshold": [0.3833416551351547, -2.0, 0.14847547933459282, -2.0, 0.513810321688652, -2.0, -2.0], "value": [[[0.16666666666666666, 0.16666666666666666, 0.0, 0.3333333333333333, 0.3333333333333333]], [[0.0, 0.0, 0.0, 1.0, 0.0]], [[0.25, 0.25, 0.0, 0.0, 0.5]], [[0.0, 0.0, 0.0, 0.0, 1.0]], [[0.5, 0.5, 0.0, 0.0, 0.0]], [[1.0, 0.0, 0.0, 0.0, 0.0]], [[0.0, 1.0, 0.0, 0.0, 0.0]]]}, {"children_left": [1, -1, 3, -1, -1], "children_right": [2, -1, 4, -1, -1], "feature": [184, -2, 21, -2, -2], "threshold": [0.14847547933459282, -2.0, 0.29141247272491455, -2.0, -2.0], "value": [[[0.3333333333333333, 0.3333333333333333, 0.0, 0.0, 0.3333333333333333]], [[0.0, 0.0, 0.0, 0.0, 1.0]], [[0.5, 0.5, 0.0, 0.0, 0.0]], [[0.0, 1.0, 0.0, 0.0, 0.0]], [[1.0, 0.0, 0.0, 0.0, 0.0]]]}, {"children_left": [1, -1, 3, -1, 5, -1, 7, -1, -1], "children_right": [2, -1, 4, -1, 6, -1, 8, -1, -1], "feature": [198, -2, 95, -2, 132, -2, 28, -2, -2], "threshold": [0.09373931586742401, -2.0, 0.15219473838806152, -2.0, 0.38310885429382324, -2.0, 0.5293634980916977, -2.0, -2.0], "value": [[[0.16666666666666666, 0.3333333333333333, 0.16666666666666666, 0.16666666666666666, 0.16666666666666666]], [[0.0, 1.0, 0.0, 0.0, 0.0]], [[0.25, 0.0, 0.25, 0.25, 0.25]], [[0.0, 0.0, 0.0, 0.0, 1.0]], [[0.3333333333333333, 0.0, 0.3333333333333333, 0.3333333333333333, 0.0]], [[0.0, 0.0, 0.0, 1.0, 0.0]], [[0.5, 0.0, 0.5, 0.0, 0.0]], [[0.0, 0.0, 1.0, 0.0, 0.0]], [[1.0, 0.0, 0.0, 0.0, 0.0]]]}, {"children_left": [1, 2, -1, 4, -1, -1, -1], "children_right": [6, 3, -1, 5, -1, -1, -1], "feature": [118, 200, -2, 31, -2, -2, -2], "threshold": [0.5520249307155609, 0.2195514440536499, -2.0, 0.5445080995559692, -2.0, -2.0, -2.0], "value": [[[0.16666666666666666, 0.3333333333333333, 0.0, 0.16666666666666666, 0.3333333333333333]], [[0.25, 0.5, 0.0, 0.25, 0.0]], [[0.0, 1.0, 0.0, 0.0, 0.0]], [[0.5, 0.0, 0.0, 0.5, 0.0]], [[1.0, 0.0, 0.0, 0.0, 0.0]], [[0.0, 0.0, 0.0, 1.0, 0.0]], [[0.0, 0.0, 0.0, 0.0, 1.0]]]}, {"children_left": [1, -1, 3, -1, -1], "children_right": [2, -1, 4, -1, -1], "feature": [103, -2, 51, -2, -2], "threshold": [0.27156058698892593, -2.0, 0.17464445531368256, -2.0, -2.0], "value": [[[0.6666666666666666, 0.16666666666666666, 0.16666666666666666, 0.0, 0.0]], [[1.0, 0.0, 0.0, 0.0, 0.0]], [[0.0, 0.5, 0.5, 0.0, 0.0]], [[0.0, 1.0, 0.0, 0.0, 0.0]], [[0.0, 0.0, 1.0, 0.0, 0.0]]]}, {"children_left": [1, -1, -1], "children_right": [2, -1, -1], "feature": [29, -2, -2], "threshold": [0.45327918231487274, -2.0, -2.0], "value": [[[0.0, 0.0, 0.0, 0.5, 0.5]], [[0.0, 0.0, 0.0, 0.0, 1.0]], [[0.0, 0.0, 0.0, 1.0, 0.0]]]}, {"children_left": [1, -1, 3, -1, -1], "children_right": [2, -1, 4, -1, -1], "feature": [75, -2, 117, -2, -2], "threshold": [0.23694506287574768, -2.0, 0.4582371413707733, -2.0, -2.0], "value": [[[0.3333333333333333, 0.3333333333333333, 0.3333333333333333, 0.0, 0.0]], [[1.0, 0.0, 0.0, 0.0, 0.0]], [[0.0, 0.5, 0.5, 0.0, 0.0]], [[0.0, 0.0, 1.0, 0.0, 0.0]], [[0.0, 1.0, 0.0, 0.0, 0.0]]]}, {"children_left": [1, 2, -1, 4, -1, -1, -1], "children_right": [6, 3, -1, 5, -1, -1, -1], "feature": [103, 72, -2, 199, -2, -2, -2], "threshold": [0.33424413204193115, 0.2000560536980629, -2.0, 0.14419271051883698, -2.0, -2.0, -2.0], "value": [[[0.16666666666666666, 0.3333333333333333, 0.3333333333333333, 0.16666666666666666, 0.0]], [[0.25, 0.5, 0.0, 0.25, 0.0]], [[0.0, 1.0, 0.0, 0.0, 0.0]], [[0.5, 0.0, 0.0, 0.5, 0.0]], [[1.0, 0.0, 0.0, 0.0, 0.0]], [[0.0, 0.0, 0.0, 1.0, 0.0]], [[0.0, 0.0, 1.0, 0.0, 0.0]]]}, {"children_left": [1, -1, 3, -1, -1], "children_right": [2, -1, 4, -1, -1], "feature": [103, -2, 103, -2, -2], "threshold": [0.24303878098726273, -2.0, 0.3290623873472214, -2.0, -2.0], "value": [[[0.6666666666666666, 0.0, 0.0, 0.16666666666666666, 0.16666666666666666]], [[1.0, 0.0, 0.0, 0.0, 0.0]], [[0.0, 0.0, 0.0, 0.5, 0.5]], [[0.0, 0.0, 0.0, 1.0, 0.0]], [[0.0, 0.0, 0.0, 0.0, 1.0]]]}, {"children_left": [1, 2, 3, -1, -1, -1, -1], "children_right": [6, 5, 4, -1, -1, -1, -1], "feature": [147, 48, 28, -2, -2, -2, -2], "threshold": [0.15691304951906204, 0.2789451405405998, 0.45582473278045654, -2.0, -2.0, -2.0, -2.0], "value": [[[0.0, 0.16666666666666666, 0.16666666666666666, 0.3333333333333333, 0.3333333333333333]], [[0.0, 0.25, 0.25, 0.5, 0.0]], [[0.0, 0.5, 0.5, 0.0, 0.0]], [[0.0, 0.0, 1.0, 0.0, 0.0]], [[0.0, 1.0, 0.0, 0.0, 0.0]], [[0.0, 0.0, 0.0, 1.0, 0.0]], [[0.0, 0.0, 0.0, 0.0, 1.0]]]}, {"children_left": [1, -1, 3, -1, 5, -1, -1], "children_right": [2, -1, 4, -1, 6, -1, -1], "feature": [53, -2, 137, -2, 140, -2, -2], "threshold": [0.16958697140216827, -2.0, 0.4353320598602295, -2.0, 0.7010874450206757, -2.0, -2.0], "value": [[[0.3333333333333333, 0.16666666666666666, 0.0, 0.3333333333333333, 0.16666666666666666]], [[1.0, 0.0, 0.0, 0.0, 0.0]], [[0.0, 0.25, 0.0, 0.5, 0.25]], [[0.0, 0.0, 0.0, 1.0, 0.0]], [[0.0, 0.5, 0.0, 0.0, 0.5]], [[0.0, 1.0, 0.0, 0.0, 0.0]], [[0.0, 0.0, 0.0, 0.0, 1.0]]]}, {"children_left": [1, -1, -1], "children_right": [2, -1, -1], "feature": [196, -2, -2], "threshold": [0.3331129476428032, -2.0, -2.0], "value": [[[0.6666666666666666, 0.0, 0.0, 0.0, 0.3333333333333333]], [[0.0, 0.0, 0.0, 0.0, 1.0]], [[1.0, 0.0, 0.0, 0.0, 0.0]]]}, {"children_left": [1, 2, 3, -1, -1, -1, -1], "children_right": [6, 5, 4, -1, -1, -1, -1], "feature": [66, 68, 42, -2, -2, -2, -2], "threshold": [0.6824009716510773, 0.48111794888973236, 0.5154935121536255, -2.0, -2.0, -2.0, -2.0], "value": [[[0.16666666666666666, 0.0, 0.3333333333333333, 0.16666666666666666, 0.3333333333333333]], [[0.25, 0.0, 0.0, 0.25, 0.5]], [[0.5, 0.0, 0.0, 0.5, 0.0]], [[1.0, 0.0, 0.0, 0.0, 0.0]], [[0.0, 0.0, 0.0, 1.0, 0.0]], [[0.0, 0.0, 0.0, 0.0, 1.0]], [[0.0, 0.0, 1.0, 0.0, 0.0]]]}, {"children_left": [1, 2, -1, -1, -1], "children_right": [4, 3, -1, -1, -1], "feature": [203, 205, -2, -2, -2], "threshold": [0.17541953176259995, 0.2084001898765564, -2.0, -2.0, -2.0], "value": [[[0.5, 0.0, 0.16666666666666666, 0.0, 0.3333333333333333]], [[0.0, 0.0, 0.3333333333333333, 0.0, 0.6666666666666666]], [[0.0, 0.0, 0.0, 0.0, 1.0]], [[0.0, 0.0, 1.0, 0.0, 0.0]], [[1.0, 0.0, 0.0, 0.0, 0.0]]]}, {"children_left": [1, -1, 3, 4, -1, -1, -1], "children_right": [2, -1, 6, 5, -1, -1, -1], "feature": [34, -2, 203, 6, -2, -2, -2], "threshold": [0.20350223779678345, -2.0, 0.17541953176259995, 0.83582803606987, -2.0, -2.0, -2.0], "value": [[[0.3333333333333333, 0.3333333333333333, 0.0, 0.16666666666666666, 0.16666666666666666]], [[0.0, 1.0, 0.0, 0.0, 0.0]], [[0.5, 0.0, 0.0, 0.25, 0.25]], [[0.0, 0.0, 0.0, 0.5, 0.5]], [[0.0, 0.0, 0.0, 1.0, 0.0]], [[0.0, 0.0, 0.0, 0.0, 1.0]], [[1.0, 0.0, 0.0, 0.0, 0.0]]]}, {"children_left": [1, 2, -1, 4, -1, -1, -1], "children_right": [6, 3, -1, 5, -1, -1, -1], "feature": [169, 41, -2, 160, -2, -2, -2], "threshold": [0.24271835386753082, 0.19022136926651, -2.0, 0.26050227135419846, -2.0, -2.0, -2.0], "value": [[[0.16666666666666666, 0.16666666666666666, 0.5, 0.0, 0.16666666666666666]], [[0.3333333333333333, 0.3333333333333333, 0.0, 0.0, 0.3333333333333333]], [[0.0, 0.0, 0.0, 0.0, 1.0]], [[0.5, 0.5, 0.0, 0.0, 0.0]], [[1.0, 0.0, 0.0, 0.0, 0.0]], [[0.0, 1.0, 0.0, 0.0, 0.0]], [[0.0, 0.0, 1.0, 0.0, 0.0]]]}, {"children_left": [1, -1, 3, -1, 5, -1, -1], "children_right": [2, -1, 4, -1, 6, -1, -1], "feature": [114, -2, 87, -2, 130, -2, -2], "threshold": [0.3214866891503334, -2.0, 0.7382071316242218, -2.0, 0.4870637208223343, -2.0, -2.0], "value": [[[0.3333333333333333, 0.0, 0.3333333333333333, 0.16666666666666666, 0.16666666666666666]], [[1.0, 0.0, 0.0, 0.0, 0.0]], [[0.0, 0.0, 0.5, 0.25, 0.25]], [[0.0, 0.0, 1.0, 0.0, 0.0]], [[0.0, 0.0, 0.0, 0.5, 0.5]], [[0.0, 0.0, 0.0, 1.0, 0.0]], [[0.0, 0.0, 0.0, 0.0, 1.0]]]}]}