{"classes": ["danger", "i", "love", "you"], "trees": [{"children_left": [1, -1, 3, -1, -1], "children_right": [2, -1, 4, -1, -1], "feature": [27, -2, 72, -2, -2], "threshold": [0.23699036985635757, -2.0, 0.4353010952472687, -2.0, -2.0], "value": [[[0.0, 0.25, 0.5, 0.25]], [[0.0, 0.0, 1.0, 0.0]], [[0.0, 0.5, 0.0, 0.5]], [[0.0, 1.0, 0.0, 0.0]], [[0.0, 0.0, 0.0, 1.0]]]}, {"children_left": [1, -1, -1], "children_right": [2, -1, -1], "feature": [176, -2, -2], "threshold": [0.11934071406722069, -2.0, -2.0], "value": [[[0.0, 0.0, 0.25, 0.75]], [[0.0, 0.0, 1.0, 0.0]], [[0.0, 0.0, 0.0, 1.0]]]}, {"children_left": [1, -1, 3, -1, -1], "children_right": [2, -1, 4, -1, -1], "feature": [46, -2, 57, -2, -2], "threshold": [0.2979201376438141, -2.0, 0.1262541450560093, -2.0, -2.0], "value": [[[0.25, 0.0, 0.5, 0.25]], [[0.0, 0.0, 1.0, 0.0]], [[0.5, 0.0, 0.0, 0.5]], [[1.0, 0.0, 0.0, 0.0]], [[0.0, 0.0, 0.0, 1.0]]]}, {"children_left": [1, 2, -1, -1, -1], "children_right": [4, 3, -1, -1, -1], "feature": [50, 82, -2, -2, -2], "threshold": [0.37156178057193756, 0.22986561059951782, -2.0, -2.0, -2.0], "value": [[[0.25, 0.25, 0.0, 0.5]], [[0.5, 0.5, 0.0, 0.0]], [[1.0, 0.0, 0.0, 0.0]], [[0.0, 1.0, 0.0, 0.0]], [[0.0, 0.0, 0.0, 1.0]]]}, {"children_left": [1, -1, -1], "children_right": [2, -1, -1], "feature": [197, -2, -2], "threshold": [0.10254965350031853, -2.0, -2.0], "value": [[[0.0, 0.5, 0.5, 0.0]], [[0.0, 1.0, 0.0, 0.0]], [[0.0, 0.0, 1.0, 0.0]]]}, {"children_left": [1, -1, -1], "children_right": [2, -1, -1], "feature": [175, -2, -2], "threshold": [0.13094185292720795, -2.0, -2.0], "value": [[[0.0, 0.5, 0.5, 0.0]], [[0.0, 0.0, 1.0, 0.0]], [[0.0, 1.0, 0.0, 0.0]]]}, {"children_left": [1, -1, 3, -1, -1], "children_right": [2, -1, 4, -1, -1], "feature": [82, -2, 123, -2, -2], "threshold": [0.22986561059951782, -2.0, 0.5028030872344971, -2.0, -2.0], "value": [[[0.5, 0.25, 0.0, 0.25]], [[1.0, 0.0, 0.0, 0.0]], [[0.0, 0.5, 0.0, 0.5]], [[0.0, 0.0, 0.0, 1.0]], [[0.0, 1.0, 0.0, 0.0]]]}, {"children_left": [1, -1, -1], "children_right": [2, -1, -1], "feature": [0, -2, -2], "threshold": [0.27154362201690674, -2.0, -2.0], "value": [[[0.0, 0.0, 0.75, 0.25]], [[0.0, 0.0, 1.0, 0.0]], [[0.0, 0.0, 0.0, 1.0]]]}, {"children_left": [1, -1, -1], "children_right": [2, -1, -1], "feature": [182, -2, -2], "threshold": [0.3201846107840538, -2.0, -2.0], "value": [[[0.75, 0.0, 0.25, 0.0]], [[1.0, 0.0, 0.0, 0.0]], [[0.0, 0.0, 1.0, 0.0]]]}, {"children_left": [1, -1, -1], "children_right": [2, -1, -1], "feature": [171, -2, -2], "threshold": [0.2591879814863205, -2.0, -2.0], "value": [[[0.5, 0.5, 0.0, 0.0]], [[0.0, 1.0, 0.0, 0.0]], [[1.0, 0.0, 0.0, 0.0]]]}, {"children_left": [1, -1, 3, -1, 5, -1, -1], "children_right": [2, -1, 4, -1, 6, -1, -1], "feature": [36, -2, 91, -2, 185, -2, -2], "threshold": [0.2999029904603958, -2.0, 0.35406067967414856, -2.0, 0.13227098807692528, -2.0, -2.0], "value": [[[0.25, 0.25, 0.25, 0.25]], [[0.0, 1.0, 0.0, 0.0]], [[0.3333333333333333, 0.0, 0.3333333333333333, 0.3333333333333333]], [[1.0, 0.0, 0.0, 0.0]], [[0.0, 0.0, 0.5, 0.5]], [[0.0, 0.0, 1.0, 0.0]], [[0.0, 0.0, 0.0, 1.0]]]}, {"children_left": [1, -1, 3, -1, -1], "children_right": [2, -1, 4, -1, -1], "feature": [107, -2, 120, -2, -2], "threshold": [0.2789018228650093, -2.0, 0.5282392799854279, -2.0, -2.0], "value": [[[0.5, 0.0, 0.25, 0.25]], [[1.0, 0.0, 0.0, 0.0]], [[0.0, 0.0, 0.5, 0.5]], [[0.0, 0.0, 0.0, 1.0]], [[0.0, 0.0, 1.0, 0.0]]]}, {"children_left": [1, -1, 3, -1, -1], "children_right": [2, -1, 4, -1, -1], "feature": [182, -2, 163, -2, -2], "threshold": [0.14440865069627762, -2.0, 0.31130844354629517, -2.0, -2.0], "value": [[[0.0, 0.25, 0.25, 0.5]], [[0.0, 0.0, 0.0, 1.0]], [[0.0, 0.5, 0.5, 0.0]], [[0.0, 1.0, 0.0, 0.0]], [[0.0, 0.0, 1.0, 0.0]]]}, {"children_left": [1, -1, 3, -1, -1], "children_right": [2, -1, 4, -1, -1], "feature": [200, -2, 202, -2, -2], "threshold": [0.22564557194709778, -2.0, 0.21633011102676392, -2.0, -2.0], "value": [[[0.25, 0.5, 0.0, 0.25]], [[0.0, 1.0, 0.0, 0.0]], [[0.5, 0.0, 0.0, 0.5]], [[0.0, 0.0, 0.0, 1.0]], [[1.0, 0.0, 0.0, 0.0]]]}, {"children_left": [1, -1, 3, -1, -1], "children_right": [2, -1, 4, -1, -1], "feature": [106, -2, 86, -2, -2], "threshold": [0.24064254015684128, -2.0, 0.6056428849697113, -2.0, -2.0], "value": [[[0.5, 0.25, 0.25, 0.0]], [[1.0, 0.0, 0.0, 0.0]], [[0.0, 0.5, 0.5, 0.0]], [[0.0, 1.0, 0.0, 0.0]], [[0.0, 0.0, 1.0, 0.0]]]}, {"children_left": [1, -1, -1], "children_right": [2, -1, -1], "feature": [58, -2, -2], "threshold": [0.25369928404688835, -2.0, -2.0], "value": [[[0.5, 0.0, 0.5, 0.0]], [[1.0, 0.0, 0.0, 0.0]], [[0.0, 0.0, 1.0, 0.0]]]}, {"children_left": [-1], "children_right": [-1], "feature": [-2], "threshold": [-2.0], "value": [[[0.0, 0.0, 0.0, 1.0]]]}, {"children_left": [1, -1, 3, -1, -1], "children_right": [2, -1, 4, -1, -1], "feature": [54, -2, 93, -2, -2], "threshold": [0.3050459772348404, -2.0, 0.16910606622695923, -2.0, -2.0], "value": [[[0.5, 0.0, 0.25, 0.25]], [[1.0, 0.0, 0.0, 0.0]], [[0.0, 0.0, 0.5, 0.5]], [[0.0, 0.0, 1.0, 0.0]], [[0.0, 0.0, 0.0, 1.0]]]}, {"children_left": [1, 2, -1, -1, -1], "children_right": [4, 3, -1, -1, -1], "feature": [184, 153, -2, -2, -2], "threshold": [0.3653450906276703, 0.23013115674257278, -2.0, -2.0, -2.0], "value": [[[0.5, 0.0, 0.25, 0.25]], [[0.0, 0.0, 0.5, 0.5]], [[0.0, 0.0, 1.0, 0.0]], [[0.0, 0.0, 0.0, 1.0]], [[1.0, 0.0, 0.0, 0.0]]]}, {"children_left": [1, -1, -1], "children_right": [2, -1, -1], "feature": [134, -2, -2], "threshold": [0.3456784337759018, -2.0, -2.0], "value": [[[0.5, 0.5, 0.0, 0.0]], [[1.0, 0.0, 0.0, 0.0]], [[0.0, 1.0, 0.0, 0.0]]]}, {"children_left": [1, 2, -1, -1, -1], "children_right": [4, 3, -1, -1, -1], "feature": [174, 101, -2, -2, -2], "threshold": [0.42233891785144806, 0.38571952283382416, -2.0, -2.0, -2.0], "value": [[[0.5, 0.25, 0.0, 0.25]], [[0.0, 0.5, 0.0, 0.5]], [[0.0, 1.0, 0.0, 0.0]], [[0.0, 0.0, 0.0, 1.0]], [[1.0, 0.0, 0.0, 0.0]]]}, {"children_left": [1, -1, -1], "children_right": [2, -1, -1], "feature": [105, -2, -2], "threshold": [0.1513725072145462, -2.0, -2.0], "value": [[[0.75, 0.0, 0.25, 0.0]], [[1.0, 0.0, 0.0, 0.0]], [[0.0, 0.0, 1.0, 0.0]]]}, {"children_left": [1, -1, -1], "children_right": [2, -1, -1], "feature": [76, -2, -2], "threshold": [0.5380376875400543, -2.0, -2.0], "value": [[[0.0, 0.75, 0.0, 0.25]], [[0.0, 1.0, 0.0, 0.0]], [[0.0, 0.0, 0.0, 1.0]]]}, {"children_left": [1, -1, -1], "children_right": [2, -1, -1], "feature": [127, -2, -2], "threshold": [0.41180509328842163, -2.0, -2.0], "value": [[[0.75, 0.25, 0.0, 0.0]], [[1.0, 0.0, 0.0, 0.0]], [[0.0, 1.0, 0.0, 0.0]]]}, {"children_left": [1, -1, 3, -1, -1], "children_right": [2, -1, 4, -1, -1], "feature": [169, -2, 146, -2, -2], "threshold": [0.13211512565612793, -2.0, 0.19518541917204857, -2.0, -2.0], "value": [[[0.5, 0.25, 0.0, 0.25]], [[1.0, 0.0, 0.0, 0.0]], [[0.0, 0.5, 0.0, 0.5]], [[0.0, 0.0, 0.0, 1.0]], [[0.0, 1.0, 0.0, 0.0]]]}, {"children_left": [1, -1, 3, -1, -1], "children_right": [2, -1, 4, -1, -1], "feature": [36, -2, 71, -2, -2], "threshold": [0.31359225511550903, -2.0, 0.4823673814535141, -2.0, -2.0], "value": [[[0.25, 0.5, 0.0, 0.25]], [[0.0, 1.0, 0.0, 0.0]], [[0.5, 0.0, 0.0, 0.5]], [[1.0, 0.0, 0.0, 0.0]], [[0.0, 0.0, 0.0, 1.0]]]}, {"children_left": [1, -1, -1], "children_right": [2, -1, -1], "feature": [113, -2, -2], "threshold": [0.2164176031947136, -2.0, -2.0], "value": [[[0.75, 0.0, 0.25, 0.0]], [[1.0, 0.0, 0.0, 0.0]], [[0.0, 0.0, 1.0, 0.0]]]}, {"children_left": [1, -1, 3, -1, 5, -1, -1], "children_right": [2, -1, 4, -1, 6, -1, -1], "feature": [118, -2, 54, -2, 90, -2, -2], "threshold": [0.34273146837949753, -2.0, 0.24877216666936874, -2.0, 0.2827838808298111, -2.0, -2.0], "value": [[[0.25, 0.25, 0.25, 0.25]], [[1.0, 0.0, 0.0, 0.0]], [[0.0, 0.3333333333333333, 0.3333333333333333, 0.3333333333333333]], [[0.0, 1.0, 0.0, 0.0]], [[0.0, 0.0, 0.5, 0.5]], [[0.0, 0.0, 0.0, 1.0]], [[0.0, 0.0, 1.0, 0.0]]]}, {"children_left": [1, -1, -1], "children_right": [2, -1, -1], "feature": [51, -2, -2], "threshold": [0.2939204052090645, -2.0, -2.0], "value": [[[0.0, 0.0, 0.25, 0.75]], [[0.0, 0.0, 1.0, 0.0]], [[0.0, 0.0, 0.0, 1.0]]]}, {"children_left": [1, 2, -1, -1, -1], "children_right": [4, 3, -1, -1, -1], "feature": [71, 107, -2, -2, -2], "threshold": [0.4823673814535141, 0.24638289958238602, -2.0, -2.0, -2.0], "value": [[[0.25, 0.25, 0.0, 0.5]], [[0.5, 0.5, 0.0, 0.0]], [[1.0, 0.0, 0.0, 0.0]], [[0.0, 1.0, 0.0, 0.0]], [[0.0, 0.0, 0.0, 1.0]]]}, {"children_left": [1, 2, -1, -1, -1], "children_right": [4, 3, -1, -1, -1], "feature": [166, 64, -2, -2, -2], "threshold": [0.4609651565551758, 0.34006935358047485, -2.0, -2.0, -2.0], "value": [[[0.5, 0.0, 0.25, 0.25]], [[0.0, 0.0, 0.5, 0.5]], [[0.0, 0.0, 1.0, 0.0]], [[0.0, 0.0, 0.0, 1.0]], [[1.0, 0.0, 0.0, 0.0]]]}, {"children_left": [1, -1, 3, -1, -1], "children_right": [2, -1, 4, -1, -1], "feature": [41, -2, 180, -2, -2], "threshold": [0.19740775227546692, -2.0, 0.14035581797361374, -2.0, -2.0], "value": [[[0.0, 0.25, 0.25, 0.5]], [[0.0, 0.0, 0.0, 1.0]], [[0.0, 0.5, 0.5, 0.0]], [[0.0, 1.0, 0.0, 0.0]], [[0.0, 0.0, 1.0, 0.0]]]}, {"children_left": [1, -1, -1], "children_right": [2, -1, -1], "feature": [159, -2, -2], "threshold": [0.21574176102876663, -2.0, -2.0], "value": [[[0.0, 0.25, 0.0, 0.75]], [[0.0, 0.0, 0.0, 1.0]], [[0.0, 1.0, 0.0, 0.0]]]}, {"children_left": [1, -1, -1], "children_right": [2, -1, -1], "feature": [132, -2, -2], "threshold": [0.4833255112171173, -2.0, -2.0], "value": [[[0.5, 0.5, 0.0, 0.0]], [[1.0, 0.0, 0.0, 0.0]], [[0.0, 1.0, 0.0, 0.0]]]}, {"children_left": [1, -1, 3, -1, -1], "children_right": [2, -1, 4, -1, -1], "feature": [8, -2, 209, -2, -2], "threshold": [0.4748307913541794, -2.0, 0.05934628285467625, -2.0, -2.0], "value": [[[0.5, 0.25, 0.0, 0.25]], [[1.0, 0.0, 0.0, 0.0]], [[0.0, 0.5, 0.0, 0.5]], [[0.0, 1.0, 0.0, 0.0]], [[0.0, 0.0, 0.0, 1.0]]]}, {"children_left": [1, -1, 3, -1, -1], "children_right": [2, -1, 4, -1, -1], "feature": [77, -2, 178, -2, -2], "threshold": [0.40291691571474075, -2.0, 0.3161295875906944, -2.0, -2.0], "value": [[[0.0, 0.25, 0.5, 0.25]], [[0.0, 0.0, 1.0, 0.0]], [[0.0, 0.5, 0.0, 0.5]], [[0.0, 1.0, 0.0, 0.0]], [[0.0, 0.0, 0.0, 1.0]]]}, {"children_left": [1, -1, -1], "children_right": [2, -1, -1], "feature": [108, -2, -2], "threshold": [0.08131133392453194, -2.0, -2.0], "value": [[[0.75, 0.0, 0.25, 0.0]], [[1.0, 0.0, 0.0, 0.0]], [[0.0, 0.0, 1.0, 0.0]]]}, {"children_left": [1, -1, 3, -1, -1], "children_right": [2, -1, 4, -1, -1], "feature": [49, -2, 174, -2, -2], "threshold": [0.34746311604976654, -2.0, 0.2970530688762665, -2.0, -2.0], "value": [[[0.0, 0.5, 0.25, 0.25]], [[0.0, 1.0, 0.0, 0.0]], [[0.0, 0.0, 0.5, 0.5]], [[0.0, 0.0, 0.0, 1.0]], [[0.0, 0.0, 1.0, 0.0]]]}, {"children_left": [1, -1, 3, -1, -1], "children_right": [2, -1, 4, -1, -1], "feature": [82, -2, 67, -2, -2], "threshold": [0.22986561059951782, -2.0, 0.23538117855787277, -2.0, -2.0], "value": [[[0.5, 0.25, 0.25, 0.0]], [[1.0, 0.0, 0.0, 0.0]], [[0.0, 0.5, 0.5, 0.0]], [[0.0, 1.0, 0.0, 0.0]], [[0.0, 0.0, 1.0, 0.0]]]}, {"children_left": [1, 2, -1, -1, -1], "children_right": [4, 3, -1, -1, -1], "feature": [53, 8, -2, -2, -2], "threshold": [0.5582866072654724, 0.3882838785648346, -2.0, -2.0, -2.0], "value": [[[0.25, 0.0, 0.25, 0.5]], [[0.5, 0.0, 0.5, 0.0]], [[0.0, 0.0, 1.0, 0.0]], [[1.0, 0.0, 0.0, 0.0]], [[0.0, 0.0, 0.0, 1.0]]]}, {"children_left": [1, -1, 3, -1, -1], "children_right": [2, -1, 4, -1, -1], "feature": [189, -2, 91, -2, -2], "threshold": [0.07213716022670269, -2.0, 0.4335428327322006, -2.0, -2.0], "value": [[[0.0, 0.25, 0.25, 0.5]], [[0.0, 0.0, 0.0, 1.0]], [[0.0, 0.5, 0.5, 0.0]], [[0.0, 1.0, 0.0, 0.0]], [[0.0, 0.0, 1.0, 0.0]]]}, {"children_left": [1, -1, 3, -1, -1], "children_right": [2, -1, 4, -1, -1], "feature": [188, -2, 105, -2, -2], "threshold": [0.20881307870149612, -2.0, 0.13391704112291336, -2.0, -2.0], "value": [[[0.25, 0.25, 0.0, 0.5]], [[0.0, 0.0, 0.0, 1.0]], [[0.5, 0.5, 0.0, 0.0]], [[1.0, 0.0, 0.0, 0.0]], [[0.0, 1.0, 0.0, 0.0]]]}, {"children_left": [1, -1, 3, -1, -1], "children_right": [2, -1, 4, -1, -1], "feature": [33, -2, 31, -2, -2], "threshold": [0.26376543939113617, -2.0, 0.2485697939991951, -2.0, -2.0], "value": [[[0.25, 0.5, 0.25, 0.0]], [[0.0, 1.0, 0.0, 0.0]], [[0.5, 0.0, 0.5, 0.0]], [[0.0, 0.0, 1.0, 0.0]], [[1.0, 0.0, 0.0, 0.0]]]}, {"children_left": [1, 2, -1, -1, -1], "children_right": [4, 3, -1, -1, -1], "feature": [50, 186, -2, -2, -2], "threshold": [0.33037130534648895, 0.2213924080133438, -2.0, -2.0, -2.0], "value": [[[0.0, 0.25, 0.25, 0.5]], [[0.0, 0.5, 0.5, 0.0]], [[0.0, 1.0, 0.0, 0.0]], [[0.0, 0.0, 1.0, 0.0]], [[0.0, 0.0, 0.0, 1.0]]]}, {"children_left": [1, 2, -1, -1, -1], "children_right": [4, 3, -1, -1, -1], "feature": [14, 81, -2, -2, -2], "threshold": [0.6521105170249939, 0.5482754707336426, -2.0, -2.0, -2.0], "value": [[[0.5, 0.0, 0.25, 0.25]], [[0.0, 0.0, 0.5, 0.5]], [[0.0, 0.0, 1.0, 0.0]], [[0.0, 0.0, 0.0, 1.0]], [[1.0, 0.0, 0.0, 0.0]]]}, {"children_left": [1, 2, -1, -1, -1], "children_right": [4, 3, -1, -1, -1], "feature": [197, 158, -2, -2, -2], "threshold": [0.2298281416296959, 0.15708553791046143, -2.0, -2.0, -2.0], "value": [[[0.5, 0.0, 0.25, 0.25]], [[0.0, 0.0, 0.5, 0.5]], [[0.0, 0.0, 1.0, 0.0]], [[0.0, 0.0, 0.0, 1.0]], [[1.0, 0.0, 0.0, 0.0]]]}, {"children_left": [1, 2, -1, -1, -1], "children_right": [4, 3, -1, -1, -1], "feature": [64, 119, -2, -2, -2], "threshold": [0.3383556455373764, 0.1215028166770935, -2.0, -2.0, -2.0], "value": [[[0.5, 0.25, 0.25, 0.0]], [[0.0, 0.5, 0.5, 0.0]], [[0.0, 1.0, 0.0, 0.0]], [[0.0, 0.0, 1.0, 0.0]], [[1.0, 0.0, 0.0, 0.0]]]}, {"children_left": [1, -1, 3, -1, -1], "children_right": [2, -1, 4, -1, -1], "feature": [36, -2, 24, -2, -2], "threshold": [0.31359225511550903, -2.0, 0.5414354205131531, -2.0, -2.0], "value": [[[0.25, 0.5, 0.0, 0.25]], [[0.0, 1.0, 0.0, 0.0]], [[0.5, 0.0, 0.0, 0.5]], [[1.0, 0.0, 0.0, 0.0]], [[0.0, 0.0, 0.0, 1.0]]]}, {"children_left": [1, -1, -1], "children_right": [2, -1, -1], "feature": [41, -2, -2], "threshold": [0.22775980085134506, -2.0, -2.0], "value": [[[0.25, 0.75, 0.0, 0.0]], [[1.0, 0.0, 0.0, 0.0]], [[0.0, 1.0, 0.0, 0.0]]]}, {"children_left": [1, -1, -1], "children_right": [2, -1, -1], "feature": [95, -2, -2], "threshold": [0.20073561742901802, -2.0, -2.0], "value": [[[0.0, 0.0, 0.5, 0.5]], [[0.0, 0.0, 0.0, 1.0]], [[0.0, 0.0, 1.0, 0.0]]]}, {"children_left": [1, 2, -1, -1, -1], "children_right": [4, 3, -1, -1, -1], "feature": [130, 38, -2, -2, -2], "threshold": [0.5831214189529419, 0.3986864313483238, -2.0, -2.0, -2.0], "value": [[[0.25, 0.0, 0.25, 0.5]], [[0.5, 0.0, 0.5, 0.0]], [[0.0, 0.0, 1.0, 0.0]], [[1.0, 0.0, 0.0, 0.0]], [[0.0, 0.0, 0.0, 1.0]]]}, {"children_left": [1, 2, -1, -1, -1], "children_right": [4, 3, -1, -1, -1], "feature": [28, 122, -2, -2, -2], "threshold": [0.5292414426803589, 0.3861059546470642, -2.0, -2.0, -2.0], "value": [[[0.5, 0.25, 0.25, 0.0]], [[0.0, 0.5, 0.5, 0.0]], [[0.0, 0.0, 1.0, 0.0]], [[0.0, 1.0, 0.0, 0.0]], [[1.0, 0.0, 0.0, 0.0]]]}, {"children_left": [1, -1, 3, -1, -1], "children_right": [2, -1, 4, -1, -1], "feature": [153, -2, 157, -2, -2], "threshold": [0.24047724157571793, -2.0, 0.2637511342763901, -2.0, -2.0], "value": [[[0.25, 0.25, 0.0, 0.5]], [[0.0, 0.0, 0.0, 1.0]], [[0.5, 0.5, 0.0, 0.0]], [[0.0, 1.0, 0.0, 0.0]], [[1.0, 0.0, 0.0, 0.0]]]}, {"children_left": [1, 2, -1, -1, -1], "children_right": [4, 3, -1, -1, -1], "feature": [79, 166, -2, -2, -2], "threshold": [0.4208863228559494, 0.34743109345436096, -2.0, -2.0, -2.0], "value": [[[0.25, 0.25, 0.0, 0.5]], [[0.5, 0.5, 0.0, 0.0]], [[0.0, 1.0, 0.0, 0.0]], [[1.0, 0.0, 0.0, 0.0]], [[0.0, 0.0, 0.0, 1.0]]]}, {"children_left": [1, 2, -1, -1, -1], "children_right": [4, 3, -1, -1, -1], "feature": [122, 10, -2, -2, -2], "threshold": [0.2953515499830246, 0.7618485391139984, -2.0, -2.0, -2.0], "value": [[[0.25, 0.0, 0.25, 0.5]], [[0.5, 0.0, 0.5, 0.0]], [[0.0, 0.0, 1.0, 0.0]], [[1.0, 0.0, 0.0, 0.0]], [[0.0, 0.0, 0.0, 1.0]]]}, {"children_left": [1, -1, 3, -1, -1], "children_right": [2, -1, 4, -1, -1], "feature": [25, -2, 140, -2, -2], "threshold": [0.6768577098846436, -2.0, 0.7436937391757965, -2.0, -2.0], "value": [[[0.0, 0.25, 0.5, 0.25]], [[0.0, 0.0, 1.0, 0.0]], [[0.0, 0.5, 0.0, 0.5]], [[0.0, 1.0, 0.0, 0.0]], [[0.0, 0.0, 0.0, 1.0]]]}, {"children_left": [1, -1, 3, -1, -1], "children_right": [2, -1, 4, -1, -1], "feature": [180, -2, 130, -2, -2], "threshold": [0.19462811201810837, -2.0, 0.46181412041187286, -2.0, -2.0], "value": [[[0.25, 0.5, 0.0, 0.25]], [[0.0, 1.0, 0.0, 0.0]], [[0.5, 0.0, 0.0, 0.5]], [[1.0, 0.0, 0.0, 0.0]], [[0.0, 0.0, 0.0, 1.0]]]}, {"children_left": [1, 2, -1, -1, -1], "children_right": [4, 3, -1, -1, -1], "feature": [157, 59, -2, -2, -2], "threshold": [0.3066151887178421, 0.4169899970293045, -2.0, -2.0, -2.0], "value": [[[0.5, 0.25, 0.0, 0.25]], [[0.0, 0.5, 0.0, 0.5]], [[0.0, 0.0, 0.0, 1.0]], [[0.0, 1.0, 0.0, 0.0]], [[1.0, 0.0, 0.0, 0.0]]]}, {"children_left": [1, -1, -1], "children_right": [2, -1, -1], "feature": [57, -2, -2], "threshold": [0.18050221353769302, -2.0, -2.0], "value": [[[0.0, 0.0, 0.75, 0.25]], [[0.0, 0.0, 0.0, 1.0]], [[0.0, 0.0, 1.0, 0.0]]]}, {"children_left": [1, 2, -1, -1, -1], "children_right": [4, 3, -1, -1, -1], "feature": [115, 181, -2, -2, -2], "threshold": [0.5485174208879471, 0.2237745337188244, -2.0, -2.0, -2.0], "value": [[[0.25, 0.25, 0.5, 0.0]], [[0.5, 0.5, 0.0, 0.0]], [[0.0, 1.0, 0.0, 0.0]], [[1.0, 0.0, 0.0, 0.0]], [[0.0, 0.0, 1.0, 0.0]]]}, {"children_left": [1, -1, -1], "children_right": [2, -1, -1], "feature": [166, -2, -2], "threshold": [0.4609651565551758, -2.0, -2.0], "value": [[[0.5, 0.0, 0.5, 0.0]], [[0.0, 0.0, 1.0, 0.0]], [[1.0, 0.0, 0.0, 0.0]]]}, {"children_left": [1, -1, -1], "children_right": [2, -1, -1], "feature": [3, -2, -2], "threshold": [0.7154254913330078, -2.0, -2.0], "value": [[[0.0, 0.5, 0.5, 0.0]], [[0.0, 1.0, 0.0, 0.0]], [[0.0, 0.0, 1.0, 0.0]]]}, {"children_left": [1, -1, -1], "children_right": [2, -1, -1], "feature": [83, -2, -2], "threshold": [0.4721623659133911, -2.0, -2.0], "value": [[[0.5, 0.0, 0.0, 0.5]], [[1.0, 0.0, 0.0, 0.0]], [[0.0, 0.0, 0.0, 1.0]]]}, {"children_left": [1, -1, -1], "children_right": [2, -1, -1], "feature": [194, -2, -2], "threshold": [0.2681763619184494, -2.0, -2.0], "value": [[[0.0, 0.0, 0.5, 0.5]], [[0.0, 0.0, 0.0, 1.0]], [[0.0, 0.0, 1.0, 0.0]]]}, {"children_left": [1, -1, 3, -1, -1], "children_right": [2, -1, 4, -1, -1], "feature": [200, -2, 175, -2, -2], "threshold": [0.27252092957496643, -2.0, 0.23150232434272766, -2.0, -2.0], "value": [[[0.25, 0.0, 0.25, 0.5]], [[0.0, 0.0, 0.0, 1.0]], [[0.5, 0.0, 0.5, 0.0]], [[0.0, 0.0, 1.0, 0.0]], [[1.0, 0.0, 0.0, 0.0]]]}, {"children_left": [1, -1, 3, -1, -1], "children_right": [2, -1, 4, -1, -1], "feature": [12, -2, 40, -2, -2], "threshold": [0.31781214475631714, -2.0, 0.30667367577552795, -2.0, -2.0], "value": [[[0.0, 0.25, 0.5, 0.25]], [[0.0, 0.0, 1.0, 0.0]], [[0.0, 0.5, 0.0, 0.5]], [[0.0, 1.0, 0.0, 0.0]], [[0.0, 0.0, 0.0, 1.0]]]}, {"children_left": [1, -1, 3, -1, -1], "children_right": [2, -1, 4, -1, -1], "feature": [156, -2, 70, -2, -2], "threshold": [0.15589919686317444, -2.0, 0.49478232860565186, -2.0, -2.0], "value": [[[0.0, 0.25, 0.25, 0.5]], [[0.0, 0.0, 0.0, 1.0]], [[0.0, 0.5, 0.5, 0.0]], [[0.0, 1.0, 0.0, 0.0]], [[0.0, 0.0, 1.0, 0.0]]]}, {"children_left": [1, -1, 3, -1, 5, -1, -1], "children_right": [2, -1, 4, -1, 6, -1, -1], "feature": [123, -2, 142, -2, 104, -2, -2], "threshold": [0.2786017209291458, -2.0, 0.674266129732132, -2.0, 0.4044494330883026, -2.0, -2.0], "value": [[[0.25, 0.25, 0.25, 0.25]], [[1.0, 0.0, 0.0, 0.0]], [[0.0, 0.3333333333333333, 0.3333333333333333, 0.3333333333333333]], [[0.0, 0.0, 1.0, 0.0]], [[0.0, 0.5, 0.0, 0.5]], [[0.0, 1.0, 0.0, 0.0]], [[0.0, 0.0, 0.0, 1.0]]]}, {"children_left": [1, -1, -1], "children_right": [2, -1, -1], "feature": [133, -2, -2], "threshold": [0.2938384711742401, -2.0, -2.0], "value": [[[0.75, 0.0, 0.0, 0.25]], [[1.0, 0.0, 0.0, 0.0]], [[0.0, 0.0, 0.0, 1.0]]]}, {"children_left": [1, -1, 3, -1, -1], "children_right": [2, -1, 4, -1, -1], "feature": [187, -2, 8, -2, -2], "threshold": [0.1618843525648117, -2.0, 0.4907851815223694, -2.0, -2.0], "value": [[[0.25, 0.25, 0.0, 0.5]], [[0.0, 0.0, 0.0, 1.0]], [[0.5, 0.5, 0.0, 0.0]], [[1.0, 0.0, 0.0, 0.0]], [[0.0, 1.0, 0.0, 0.0]]]}, {"children_left": [1, 2, -1, -1, -1], "children_right": [4, 3, -1, -1, -1], "feature": [64, 153, -2, -2, -2], "threshold": [0.34006935358047485, 0.2638601139187813, -2.0, -2.0, -2.0], "value": [[[0.0, 0.25, 0.25, 0.5]], [[0.0, 0.5, 0.5, 0.0]], [[0.0, 0.0, 1.0, 0.0]], [[0.0, 1.0, 0.0, 0.0]], [[0.0, 0.0, 0.0, 1.0]]]}, {"children_left": [1, 2, -1, -1, -1], "children_right": [4, 3, -1, -1, -1], "feature": [36, 59, -2, -2, -2], "threshold": [0.38820216059684753, 0.2827419489622116, -2.0, -2.0, -2.0], "value": [[[0.5, 0.0, 0.25, 0.25]], [[0.0, 0.0, 0.5, 0.5]], [[0.0, 0.0, 1.0, 0.0]], [[0.0, 0.0, 0.0, 1.0]], [[1.0, 0.0, 0.0, 0.0]]]}, {"children_left": [1, -1, -1], "children_right": [2, -1, -1], "feature": [205, -2, -2], "threshold": [0.1450788863003254, -2.0, -2.0], "value": [[[0.0, 0.75, 0.0, 0.25]], [[0.0, 0.0, 0.0, 1.0]], [[0.0, 1.0, 0.0, 0.0]]]}, {"children_left": [1, -1, 3, -1, 5, -1, -1], "children_right": [2, -1, 4, -1, 6, -1, -1], "feature": [198, -2, 71, -2, 48, -2, -2], "threshold": [0.0888749472796917, -2.0, 0.34651996195316315, -2.0, 0.2202085480093956, -2.0, -2.0], "value": [[[0.25, 0.25, 0.25, 0.25]], [[0.0, 1.0, 0.0, 0.0]], [[0.3333333333333333, 0.0, 0.3333333333333333, 0.3333333333333333]], [[1.0, 0.0, 0.0, 0.0]], [[0.0, 0.0, 0.5, 0.5]], [[0.0, 0.0, 1.0, 0.0]], [[0.0, 0.0, 0.0, 1.0]]]}, {"children_left": [1, -1, -1], "children_right": [2, -1, -1], "feature": [69, -2, -2], "threshold": [0.5310863554477692, -2.0, -2.0], "value": [[[0.25, 0.0, 0.0, 0.75]], [[1.0, 0.0, 0.0, 0.0]], [[0.0, 0.0, 0.0, 1.0]]]}, {"children_left": [1, 2, -1, -1, -1], "children_right": [4, 3, -1, -1, -1], "feature": [145, 126, -2, -2, -2], "threshold": [0.30735548585653305, 0.5409976243972778, -2.0, -2.0, -2.0], "value": [[[0.0, 0.25, 0.5, 0.25]], [[0.0, 0.5, 0.0, 0.5]], [[0.0, 0.0, 0.0, 1.0]], [[0.0, 1.0, 0.0, 0.0]], [[0.0, 0.0, 1.0, 0.0]]]}, {"children_left": [1, -1, -1], "children_right": [2, -1, -1], "feature": [60, -2, -2], "threshold": [0.27560313045978546, -2.0, -2.0], "value": [[[0.75, 0.0, 0.25, 0.0]], [[0.0, 0.0, 1.0, 0.0]], [[1.0, 0.0, 0.0, 0.0]]]}, {"children_left": [1, 2, -1, -1, -1], "children_right": [4, 3, -1, -1, -1], "feature": [105, 141, -2, -2, -2], "threshold": [0.15966738015413284, 0.6866257786750793, -2.0, -2.0, -2.0], "value": [[[0.0, 0.25, 0.5, 0.25]], [[0.0, 0.5, 0.0, 0.5]], [[0.0, 1.0, 0.0, 0.0]], [[0.0, 0.0, 0.0, 1.0]], [[0.0, 0.0, 1.0, 0.0]]]}, {"children_left": [1, 2, -1, -1, -1], "children_right": [4, 3, -1, -1, -1], "feature": [50, 80, -2, -2, -2], "threshold": [0.37156178057193756, 0.3764370381832123, -2.0, -2.0, -2.0], "value": [[[0.25, 0.0, 0.25, 0.5]], [[0.5, 0.0, 0.5, 0.0]], [[1.0, 0.0, 0.0, 0.0]], [[0.0, 0.0, 1.0, 0.0]], [[0.0, 0.0, 0.0, 1.0]]]}, {"children_left": [1, -1, 3, -1, 5, -1, -1], "children_right": [2, -1, 4, -1, 6, -1, -1], "feature": [166, -2, 139, -2, 67, -2, -2], "threshold": [0.2603863328695297, -2.0, 0.3654802553355694, -2.0, 0.4625011682510376, -2.0, -2.0], "value": [[[0.25, 0.25, 0.25, 0.25]], [[0.0, 1.0, 0.0, 0.0]], [[0.3333333333333333, 0.0, 0.3333333333333333, 0.3333333333333333]], [[1.0, 0.0, 0.0, 0.0]], [[0.0, 0.0, 0.5, 0.5]], [[0.0, 0.0, 1.0, 0.0]], [[0.0, 0.0, 0.0, 1.0]]]}, {"children_left": [1, -1, 3, -1, -1], "children_right": [2, -1, 4, -1, -1], "feature": [53, -2, 202, -2, -2], "threshold": [0.3698567971587181, -2.0, 0.10775385797023773, -2.0, -2.0], "value": [[[0.5, 0.0, 0.25, 0.25]], [[1.0, 0.0, 0.0, 0.0]], [[0.0, 0.0, 0.5, 0.5]], [[0.0, 0.0, 1.0, 0.0]], [[0.0, 0.0, 0.0, 1.0]]]}, {"children_left": [1, 2, -1, -1, -1], "children_right": [4, 3, -1, -1, -1], "feature": [33, 199, -2, -2, -2], "threshold": [0.4802200049161911, 0.2155783474445343, -2.0, -2.0, -2.0], "value": [[[0.5, 0.0, 0.25, 0.25]], [[0.0, 0.0, 0.5, 0.5]], [[0.0, 0.0, 1.0, 0.0]], [[0.0, 0.0, 0.0, 1.0]], [[1.0, 0.0, 0.0, 0.0]]]}, {"children_left": [1, -1, -1], "children_right": [2, -1, -1], "feature": [30, -2, -2], "threshold": [0.276262491941452, -2.0, -2.0], "value": [[[0.0, 0.75, 0.25, 0.0]], [[0.0, 1.0, 0.0, 0.0]], [[0.0, 0.0, 1.0, 0.0]]]}, {"children_left": [1, -1, -1], "children_right": [2, -1, -1], "feature": [60, -2, -2], "threshold": [0.3687034398317337, -2.0, -2.0], "value": [[[0.0, 0.75, 0.25, 0.0]], [[0.0, 0.0, 1.0, 0.0]], [[0.0, 1.0, 0.0, 0.0]]]}, {"children_left": [1, -1, 3, -1, 5, -1, -1], "children_right": [2, -1, 4, -1, 6, -1, -1], "feature": [184, -2, 21, -2, 108, -2, -2], "threshold": [0.1707030087709427, -2.0, 0.264008067548275, -2.0, 0.08131133392453194, -2.0, -2.0], "value": [[[0.25, 0.25, 0.25, 0.25]], [[0.0, 0.0, 0.0, 1.0]], [[0.3333333333333333, 0.3333333333333333, 0.3333333333333333, 0.0]], [[0.0, 1.0, 0.0, 0.0]], [[0.5, 0.0, 0.5, 0.0]], [[1.0, 0.0, 0.0, 0.0]], [[0.0, 0.0, 1.0, 0.0]]]}, {"children_left": [1, -1, 3, -1, -1], "children_right": [2, -1, 4, -1, -1], "feature": [149, -2, 95, -2, -2], "threshold": [0.1683288961648941, -2.0, 0.3531706929206848, -2.0, -2.0], "value": [[[0.25, 0.0, 0.25, 0.5]], [[0.0, 0.0, 0.0, 1.0]], [[0.5, 0.0, 0.5, 0.0]], [[0.0, 0.0, 1.0, 0.0]], [[1.0, 0.0, 0.0, 0.0]]]}, {"children_left": [1, 2, -1, -1, -1], "children_right": [4, 3, -1, -1, -1], "feature": [134, 200, -2, -2, -2], "threshold": [0.5213072597980499, 0.40960948169231415, -2.0, -2.0, -2.0], "value": [[[0.25, 0.5, 0.0, 0.25]], [[0.5, 0.0, 0.0, 0.5]], [[0.0, 0.0, 0.0, 1.0]], [[1.0, 0.0, 0.0, 0.0]], [[0.0, 1.0, 0.0, 0.0]]]}, {"children_left": [1, -1, -1], "children_right": [2, -1, -1], "feature": [54, -2, -2], "threshold": [0.3992942124605179, -2.0, -2.0], "value": [[[0.5, 0.0, 0.0, 0.5]], [[1.0, 0.0, 0.0, 0.0]], [[0.0, 0.0, 0.0, 1.0]]]}, {"children_left": [-1], "children_right": [-1], "feature": [-2], "threshold": [-2.0], "value": [[[0.0, 1.0, 0.0, 0.0]]]}, {"children_left": [1, 2, -1, -1, -1], "children_right": [4, 3, -1, -1, -1], "feature": [157, 117, -2, -2, -2], "threshold": [0.4191456586122513, 0.3794715330004692, -2.0, -2.0, -2.0], "value": [[[0.25, 0.0, 0.5, 0.25]], [[0.5, 0.0, 0.0, 0.5]], [[1.0, 0.0, 0.0, 0.0]], [[0.0, 0.0, 0.0, 1.0]], [[0.0, 0.0, 1.0, 0.0]]]}, {"children_left": [1, -1, 3, -1, 5, -1, -1], "children_right": [2, -1, 4, -1, 6, -1, -1], "feature": [103, -2, 42, -2, 199, -2, -2], "threshold": [0.2809298485517502, -2.0, 0.30495722591876984, -2.0, 0.16025175154209137, -2.0, -2.0], "value": [[[0.25, 0.25, 0.25, 0.25]], [[1.0, 0.0, 0.0, 0.0]], [[0.0, 0.3333333333333333, 0.3333333333333333, 0.3333333333333333]], [[0.0, 0.0, 1.0, 0.0]], [[0.0, 0.5, 0.0, 0.5]], [[0.0, 1.0, 0.0, 0.0]], [[0.0, 0.0, 0.0, 1.0]]]}, {"children_left": [1, -1, 3, -1, -1], "children_right": [2, -1, 4, -1, -1], "feature": [103, -2, 103, -2, -2], "threshold": [0.2809298485517502, -2.0, 0.30803343653678894, -2.0, -2.0], "value": [[[0.5, 0.25, 0.25, 0.0]], [[1.0, 0.0, 0.0, 0.0]], [[0.0, 0.5, 0.5, 0.0]], [[0.0, 0.0, 1.0, 0.0]], [[0.0, 1.0, 0.0, 0.0]]]}, {"children_left": [1, -1, 3, -1, -1], "children_right": [2, -1, 4, -1, -1], "feature": [199, -2, 48, -2, -2], "threshold": [0.10997426509857178, -2.0, 0.42558354139328003, -2.0, -2.0], "value": [[[0.25, 0.5, 0.25, 0.0]], [[0.0, 1.0, 0.0, 0.0]], [[0.5, 0.0, 0.5, 0.0]], [[0.0, 0.0, 1.0, 0.0]], [[1.0, 0.0, 0.0, 0.0]]]}, {"children_left": [1, -1, -1], "children_right": [2, -1, -1], "feature": [53, -2, -2], "threshold": [0.22475944459438324, -2.0, -2.0], "value": [[[0.5, 0.5, 0.0, 0.0]], [[1.0, 0.0, 0.0, 0.0]], [[0.0, 1.0, 0.0, 0.0]]]}, {"children_left": [1, 2, -1, -1, -1], "children_right": [4, 3, -1, -1, -1], "feature": [85, 21, -2, -2, -2], "threshold": [0.504740297794342, 0.264008067548275, -2.0, -2.0, -2.0], "value": [[[0.25, 0.25, 0.5, 0.0]], [[0.5, 0.5, 0.0, 0.0]], [[0.0, 1.0, 0.0, 0.0]], [[1.0, 0.0, 0.0, 0.0]], [[0.0, 0.0, 1.0, 0.0]]]}, {"children_left": [1, -1, -1], "children_right": [2, -1, -1], "feature": [66, -2, -2], "threshold": [0.46359921991825104, -2.0, -2.0], "value": [[[0.0, 0.5, 0.0, 0.5]], [[0.0, 1.0, 0.0, 0.0]], [[0.0, 0.0, 0.0, 1.0]]]}, {"children_left": [1, -1, 3, -1, 5, -1, -1], "children_right": [2, -1, 4, -1, 6, -1, -1], "feature": [203, -2, 205, -2, 115, -2, -2], "threshold": [0.07536612823605537, -2.0, 0.1970892734825611, -2.0, 0.5270968228578568, -2.0, -2.0], "value": [[[0.25, 0.25, 0.25, 0.25]], [[0.0, 1.0, 0.0, 0.0]], [[0.3333333333333333, 0.0, 0.3333333333333333, 0.3333333333333333]], [[0.0, 0.0, 0.0, 1.0]], [[0.5, 0.0, 0.5, 0.0]], [[1.0, 0.0, 0.0, 0.0]], [[0.0, 0.0, 1.0, 0.0]]]}, {"children_left": [1, 2, -1, -1, -1], "children_right": [4, 3, -1, -1, -1], "feature": [98, 203, -2, -2, -2], "threshold": [0.2721949741244316, 0.12324251607060432, -2.0, -2.0, -2.0], "value": [[[0.25, 0.25, 0.5, 0.0]], [[0.5, 0.5, 0.0, 0.0]], [[0.0, 1.0, 0.0, 0.0]], [[1.0, 0.0, 0.0, 0.0]], [[0.0, 0.0, 1.0, 0.0]]]}, {"children_left": [1, -1, 3, -1, -1], "children_right": [2, -1, 4, -1, -1], "feature": [155, -2, 41, -2, -2], "threshold": [0.06128024309873581, -2.0, 0.17695333063602448, -2.0, -2.0], "value": [[[0.25, 0.0, 0.25, 0.5]], [[0.0, 0.0, 0.0, 1.0]], [[0.5, 0.0, 0.5, 0.0]], [[1.0, 0.0, 0.0, 0.0]], [[0.0, 0.0, 1.0, 0.0]]]}, {"children_left": [1, -1, -1], "children_right": [2, -1, -1], "feature": [114, -2, -2], "threshold": [0.390041708946228, -2.0, -2.0], "value": [[[0.0, 0.0, 0.75, 0.25]], [[0.0, 0.0, 1.0, 0.0]], [[0.0, 0.0, 0.0, 1.0]]]}]}